digraph Tree {
node [shape=box, style="filled, rounded", color="black", fontname="helvetica"] ;
edge [fontname="helvetica"] ;
0 [label=<size &le; 70.23<br/>squared_error = 9.780220038400102e+17<br/>samples = 4291<br/>value = 2417305170.957>, fillcolor="#f4cbae"] ;
1 [label=<size &le; 58.95<br/>squared_error = 5.324367354501545e+17<br/>samples = 2526<br/>value = 2093167444.898>, fillcolor="#f6d3b9"] ;
0 -> 1 [labeldistance=2.5, labelangle=45, headlabel="True"] ;
2 [label=<size &le; 53.675<br/>squared_error = 3.684899950967967e+17<br/>samples = 881<br/>value = 1728347884.273>, fillcolor="#f8dbc6"] ;
1 -> 2 ;
3 [label=<area_name &le; 19.5<br/>squared_error = 3.2565856531098726e+17<br/>samples = 410<br/>value = 1529220697.669>, fillcolor="#f8dfcd"] ;
2 -> 3 ;
4 [label=<street_name &le; 505.0<br/>squared_error = 1.2650797415905562e+17<br/>samples = 67<br/>value = 1197895522.388>, fillcolor="#fae7d9"] ;
3 -> 4 ;
5 [label=<size &le; 48.5<br/>squared_error = 2.665483159722214e+16<br/>samples = 24<br/>value = 936208333.333>, fillcolor="#fbede2"] ;
4 -> 5 ;
6 [label=<size &le; 43.5<br/>squared_error = 3456000000000000.0<br/>samples = 5<br/>value = 672000000.0>, fillcolor="#fcf3ec"] ;
5 -> 6 ;
7 [label=<street_name &le; 138.5<br/>squared_error = 675000000000000.0<br/>samples = 4<br/>value = 645000000.0>, fillcolor="#fdf3ed"] ;
6 -> 7 ;
8 [label=<squared_error = 0.0<br/>samples = 3<br/>value = 630000000.0>, fillcolor="#fdf4ed"] ;
7 -> 8 ;
9 [label=<squared_error = 0.0<br/>samples = 1<br/>value = 690000000.0>, fillcolor="#fcf2eb"] ;
7 -> 9 ;
10 [label=<squared_error = 0.0<br/>samples = 1<br/>value = 780000000.0>, fillcolor="#fcf0e8"] ;
6 -> 10 ;
11 [label=<street_name &le; 99.0<br/>squared_error = 9555562326869890.0<br/>samples = 19<br/>value = 1005736842.105>, fillcolor="#fbebe0"] ;
5 -> 11 ;
12 [label=<squared_error = 0.0<br/>samples = 1<br/>value = 1300000000.0>, fillcolor="#fae5d5"] ;
11 -> 12 ;
13 [label=<size &le; 52.0<br/>squared_error = 5008570987654400.0<br/>samples = 18<br/>value = 989388888.889>, fillcolor="#fbece0"] ;
11 -> 13 ;
14 [label=<street_name &le; 338.5<br/>squared_error = 5074380622837376.0<br/>samples = 17<br/>value = 985823529.412>, fillcolor="#fbece1"] ;
13 -> 14 ;
15 [label=<squared_error = 5683943877551104.0<br/>samples = 14<br/>value = 986357142.857>, fillcolor="#fbece0"] ;
14 -> 15 ;
16 [label=<squared_error = 2222222222222080.0<br/>samples = 3<br/>value = 983333333.333>, fillcolor="#fbece1"] ;
14 -> 16 ;
17 [label=<squared_error = 0.0<br/>samples = 1<br/>value = 1050000000.0>, fillcolor="#fbeade"] ;
13 -> 17 ;
18 [label=<category_name &le; 0.5<br/>squared_error = 1.2268553272038938e+17<br/>samples = 43<br/>value = 1343953488.372>, fillcolor="#f9e4d4"] ;
4 -> 18 ;
19 [label=<size &le; 45.0<br/>squared_error = 8.588524999999974e+16<br/>samples = 40<br/>value = 1296000000.0>, fillcolor="#fae5d6"] ;
18 -> 19 ;
20 [label=<size &le; 40.5<br/>squared_error = 1.5681875e+17<br/>samples = 4<br/>value = 777500000.0>, fillcolor="#fcf0e8"] ;
19 -> 20 ;
21 [label=<squared_error = 0.0<br/>samples = 1<br/>value = 1450000000.0>, fillcolor="#f9e1d0"] ;
20 -> 21 ;
22 [label=<size &le; 43.0<br/>squared_error = 8088888888888895.0<br/>samples = 3<br/>value = 553333333.333>, fillcolor="#fdf5f0"] ;
20 -> 22 ;
23 [label=<size &le; 41.5<br/>squared_error = 100000000000000.0<br/>samples = 2<br/>value = 490000000.0>, fillcolor="#fdf7f2"] ;
22 -> 23 ;
24 [label=<squared_error = 0.0<br/>samples = 1<br/>value = 500000000.0>, fillcolor="#fdf7f2"] ;
23 -> 24 ;
25 [label=<squared_error = 0.0<br/>samples = 1<br/>value = 480000000.0>, fillcolor="#fdf7f2"] ;
23 -> 25 ;
26 [label=<squared_error = 0.0<br/>samples = 1<br/>value = 680000000.0>, fillcolor="#fcf2eb"] ;
22 -> 26 ;
27 [label=<street_name &le; 695.0<br/>squared_error = 4.481334876543155e+16<br/>samples = 36<br/>value = 1353611111.111>, fillcolor="#f9e3d3"] ;
19 -> 27 ;
28 [label=<size &le; 51.0<br/>squared_error = 1.2230541103017728e+16<br/>samples = 31<br/>value = 1289677419.355>, fillcolor="#fae5d6"] ;
27 -> 28 ;
29 [label=<size &le; 48.0<br/>squared_error = 1879488703923456.0<br/>samples = 29<br/>value = 1316551724.138>, fillcolor="#f9e4d5"] ;
28 -> 29 ;
30 [label=<squared_error = 0.0<br/>samples = 1<br/>value = 1330000000.0>, fillcolor="#f9e4d4"] ;
29 -> 30 ;
31 [label=<squared_error = 1939923469387520.0<br/>samples = 28<br/>value = 1316071428.571>, fillcolor="#f9e4d5"] ;
29 -> 31 ;
32 [label=<squared_error = 0.0<br/>samples = 2<br/>value = 900000000.0>, fillcolor="#fbeee4"] ;
28 -> 32 ;
33 [label=<size &le; 48.5<br/>squared_error = 6.436e+16<br/>samples = 5<br/>value = 1750000000.0>, fillcolor="#f7dac5"] ;
27 -> 33 ;
34 [label=<size &le; 46.5<br/>squared_error = 1.8225e+16<br/>samples = 2<br/>value = 1515000000.0>, fillcolor="#f9e0ce"] ;
33 -> 34 ;
35 [label=<squared_error = 0.0<br/>samples = 1<br/>value = 1380000000.0>, fillcolor="#f9e3d3"] ;
34 -> 35 ;
36 [label=<squared_error = 0.0<br/>samples = 1<br/>value = 1650000000.0>, fillcolor="#f8ddc9"] ;
34 -> 36 ;
37 [label=<street_name &le; 797.0<br/>squared_error = 3.375555555555533e+16<br/>samples = 3<br/>value = 1906666666.667>, fillcolor="#f7d7c0"] ;
33 -> 37 ;
38 [label=<squared_error = 4.41e+16<br/>samples = 2<br/>value = 1860000000.0>, fillcolor="#f7d8c2"] ;
37 -> 38 ;
39 [label=<squared_error = 0.0<br/>samples = 1<br/>value = 2000000000.0>, fillcolor="#f6d5bd"] ;
37 -> 39 ;
40 [label=<category_name &le; 2.0<br/>squared_error = 1.7388888888888934e+17<br/>samples = 3<br/>value = 1983333333.333>, fillcolor="#f6d5bd"] ;
18 -> 40 ;
41 [label=<size &le; 36.375<br/>squared_error = 1.6e+17<br/>samples = 2<br/>value = 1800000000.0>, fillcolor="#f7d9c4"] ;
40 -> 41 ;
42 [label=<squared_error = 0.0<br/>samples = 1<br/>value = 1400000000.0>, fillcolor="#f9e2d2"] ;
41 -> 42 ;
43 [label=<squared_error = 0.0<br/>samples = 1<br/>value = 2200000000.0>, fillcolor="#f5d0b6"] ;
41 -> 43 ;
44 [label=<squared_error = 0.0<br/>samples = 1<br/>value = 2350000000.0>, fillcolor="#f5cdb0"] ;
40 -> 44 ;
45 [label=<size &le; 42.5<br/>squared_error = 3.3892789018927974e+17<br/>samples = 343<br/>value = 1593940192.549>, fillcolor="#f8decb"] ;
3 -> 45 ;
46 [label=<area_name &le; 109.5<br/>squared_error = 3.7419250653983386e+17<br/>samples = 29<br/>value = 1077103448.276>, fillcolor="#fbeadd"] ;
45 -> 46 ;
47 [label=<area_name &le; 99.0<br/>squared_error = 3.150102396694213e+17<br/>samples = 22<br/>value = 929818181.818>, fillcolor="#fbede2"] ;
46 -> 47 ;
48 [label=<rooms &le; 2.145<br/>squared_error = 2.554103724489792e+17<br/>samples = 14<br/>value = 1191357142.857>, fillcolor="#fae7d9"] ;
47 -> 48 ;
49 [label=<street_name &le; 961.0<br/>squared_error = 1.9589709e+17<br/>samples = 10<br/>value = 1389900000.0>, fillcolor="#f9e2d2"] ;
48 -> 49 ;
50 [label=<size &le; 39.5<br/>squared_error = 1.2688420408163251e+17<br/>samples = 7<br/>value = 1206285714.286>, fillcolor="#fae7d9"] ;
49 -> 50 ;
51 [label=<size &le; 35.7<br/>squared_error = 7.48976875e+16<br/>samples = 4<br/>value = 1024750000.0>, fillcolor="#fbebdf"] ;
50 -> 51 ;
52 [label=<street_name &le; 596.5<br/>squared_error = 8010250000000000.0<br/>samples = 2<br/>value = 1289500000.0>, fillcolor="#fae5d6"] ;
51 -> 52 ;
53 [label=<squared_error = 0.0<br/>samples = 1<br/>value = 1379000000.0>, fillcolor="#f9e3d3"] ;
52 -> 53 ;
54 [label=<squared_error = 0.0<br/>samples = 1<br/>value = 1200000000.0>, fillcolor="#fae7d9"] ;
52 -> 54 ;
55 [label=<street_name &le; 599.5<br/>squared_error = 1600000000000000.0<br/>samples = 2<br/>value = 760000000.0>, fillcolor="#fcf1e9"] ;
51 -> 55 ;
56 [label=<squared_error = 0.0<br/>samples = 1<br/>value = 720000000.0>, fillcolor="#fcf2ea"] ;
55 -> 56 ;
57 [label=<squared_error = 0.0<br/>samples = 1<br/>value = 800000000.0>, fillcolor="#fcf0e7"] ;
55 -> 57 ;
58 [label=<area_name &le; 63.5<br/>squared_error = 9.36722222222226e+16<br/>samples = 3<br/>value = 1448333333.333>, fillcolor="#f9e1d0"] ;
50 -> 58 ;
59 [label=<squared_error = 0.0<br/>samples = 1<br/>value = 1100000000.0>, fillcolor="#fae9dc"] ;
58 -> 59 ;
60 [label=<area_name &le; 85.5<br/>squared_error = 4.950625e+16<br/>samples = 2<br/>value = 1622500000.0>, fillcolor="#f8ddca"] ;
58 -> 60 ;
61 [label=<squared_error = 0.0<br/>samples = 1<br/>value = 1845000000.0>, fillcolor="#f7d8c2"] ;
60 -> 61 ;
62 [label=<squared_error = 0.0<br/>samples = 1<br/>value = 1400000000.0>, fillcolor="#f9e2d2"] ;
60 -> 62 ;
63 [label=<size &le; 35.705<br/>squared_error = 9.470555555555584e+16<br/>samples = 3<br/>value = 1818333333.333>, fillcolor="#f7d9c3"] ;
49 -> 63 ;
64 [label=<squared_error = 0.0<br/>samples = 1<br/>value = 1385000000.0>, fillcolor="#f9e3d2"] ;
63 -> 64 ;
65 [label=<street_name &le; 1057.5<br/>squared_error = 1225000000000000.0<br/>samples = 2<br/>value = 2035000000.0>, fillcolor="#f6d4bb"] ;
63 -> 65 ;
66 [label=<squared_error = 0.0<br/>samples = 1<br/>value = 2070000000.0>, fillcolor="#f6d3ba"] ;
65 -> 66 ;
67 [label=<squared_error = 0.0<br/>samples = 1<br/>value = 2000000000.0>, fillcolor="#f6d5bd"] ;
65 -> 67 ;
68 [label=<area_name &le; 45.5<br/>squared_error = 5.9275e+16<br/>samples = 4<br/>value = 695000000.0>, fillcolor="#fcf2eb"] ;
48 -> 68 ;
69 [label=<street_name &le; 692.0<br/>squared_error = 2488888888888832.0<br/>samples = 3<br/>value = 833333333.333>, fillcolor="#fcefe6"] ;
68 -> 69 ;
70 [label=<squared_error = 0.0<br/>samples = 1<br/>value = 900000000.0>, fillcolor="#fbeee4"] ;
69 -> 70 ;
71 [label=<street_name &le; 1045.5<br/>squared_error = 400000000000000.0<br/>samples = 2<br/>value = 800000000.0>, fillcolor="#fcf0e7"] ;
69 -> 71 ;
72 [label=<squared_error = 0.0<br/>samples = 1<br/>value = 820000000.0>, fillcolor="#fcefe6"] ;
71 -> 72 ;
73 [label=<squared_error = 0.0<br/>samples = 1<br/>value = 780000000.0>, fillcolor="#fcf0e8"] ;
71 -> 73 ;
74 [label=<squared_error = 0.0<br/>samples = 1<br/>value = 280000000.0>, fillcolor="#fefcfa"] ;
68 -> 74 ;
75 [label=<size &le; 36.5<br/>squared_error = 9.0122359375e+16<br/>samples = 8<br/>value = 472125000.0>, fillcolor="#fdf7f3"] ;
47 -> 75 ;
76 [label=<squared_error = 0.0<br/>samples = 1<br/>value = 1100000000.0>, fillcolor="#fae9dc"] ;
75 -> 76 ;
77 [label=<size &le; 41.0<br/>squared_error = 3.863338775510205e+16<br/>samples = 7<br/>value = 382428571.429>, fillcolor="#fef9f6"] ;
75 -> 77 ;
78 [label=<street_name &le; 602.0<br/>squared_error = 2562250000000000.0<br/>samples = 6<br/>value = 304500000.0>, fillcolor="#fefbf9"] ;
77 -> 78 ;
79 [label=<squared_error = 2250000000000.0<br/>samples = 2<br/>value = 250500000.0>, fillcolor="#fefcfb"] ;
78 -> 79 ;
80 [label=<street_name &le; 869.0<br/>squared_error = 1655250000000000.0<br/>samples = 4<br/>value = 331500000.0>, fillcolor="#fefaf8"] ;
78 -> 80 ;
81 [label=<squared_error = 1766000000000000.0<br/>samples = 3<br/>value = 342000000.0>, fillcolor="#fefaf7"] ;
80 -> 81 ;
82 [label=<squared_error = 0.0<br/>samples = 1<br/>value = 300000000.0>, fillcolor="#fefbf9"] ;
80 -> 82 ;
83 [label=<squared_error = 0.0<br/>samples = 1<br/>value = 850000000.0>, fillcolor="#fcefe5"] ;
77 -> 83 ;
84 [label=<street_name &le; 716.5<br/>squared_error = 2.777428571428572e+17<br/>samples = 7<br/>value = 1540000000.0>, fillcolor="#f8dfcd"] ;
46 -> 84 ;
85 [label=<size &le; 35.5<br/>squared_error = 1.2568055555555533e+17<br/>samples = 6<br/>value = 1371666666.667>, fillcolor="#f9e3d3"] ;
84 -> 85 ;
86 [label=<size &le; 33.0<br/>squared_error = 2500000000000000.0<br/>samples = 2<br/>value = 1850000000.0>, fillcolor="#f7d8c2"] ;
85 -> 86 ;
87 [label=<squared_error = 0.0<br/>samples = 1<br/>value = 1800000000.0>, fillcolor="#f7d9c4"] ;
86 -> 87 ;
88 [label=<squared_error = 0.0<br/>samples = 1<br/>value = 1900000000.0>, fillcolor="#f7d7c0"] ;
86 -> 88 ;
89 [label=<size &le; 39.0<br/>squared_error = 1.566875e+16<br/>samples = 4<br/>value = 1132500000.0>, fillcolor="#fae8db"] ;
85 -> 89 ;
90 [label=<size &le; 37.0<br/>squared_error = 2500000000000000.0<br/>samples = 2<br/>value = 1250000000.0>, fillcolor="#fae6d7"] ;
89 -> 90 ;
91 [label=<squared_error = 0.0<br/>samples = 1<br/>value = 1300000000.0>, fillcolor="#fae5d5"] ;
90 -> 91 ;
92 [label=<squared_error = 0.0<br/>samples = 1<br/>value = 1200000000.0>, fillcolor="#fae7d9"] ;
90 -> 92 ;
93 [label=<squared_error = 1225000000000000.0<br/>samples = 2<br/>value = 1015000000.0>, fillcolor="#fbebdf"] ;
89 -> 93 ;
94 [label=<squared_error = 0.0<br/>samples = 1<br/>value = 2550000000.0>, fillcolor="#f4c8a9"] ;
84 -> 94 ;
95 [label=<street_name &le; 1261.0<br/>squared_error = 3.087221574301179e+17<br/>samples = 314<br/>value = 1641673522.434>, fillcolor="#f8ddc9"] ;
45 -> 95 ;
96 [label=<area_name &le; 79.0<br/>squared_error = 2.7850889396978534e+17<br/>samples = 312<br/>value = 1629650641.042>, fillcolor="#f8ddca"] ;
95 -> 96 ;
97 [label=<area_name &le; 71.5<br/>squared_error = 3.753274869078948e+17<br/>samples = 129<br/>value = 1783441860.504>, fillcolor="#f7dac4"] ;
96 -> 97 ;
98 [label=<area_name &le; 68.5<br/>squared_error = 3.279867014593577e+17<br/>samples = 98<br/>value = 1688051020.459>, fillcolor="#f8dcc8"] ;
97 -> 98 ;
99 [label=<category_name &le; 2.5<br/>squared_error = 2.6655987806683034e+17<br/>samples = 88<br/>value = 1784590909.148>, fillcolor="#f7dac4"] ;
98 -> 99 ;
100 [label=<area_name &le; 54.5<br/>squared_error = 2.514682000725166e+17<br/>samples = 86<br/>value = 1806558139.593>, fillcolor="#f7d9c3"] ;
99 -> 100 ;
101 [label=<area_name &le; 49.5<br/>squared_error = 3.1085159158282496e+17<br/>samples = 46<br/>value = 1958130434.891>, fillcolor="#f6d6be"] ;
100 -> 101 ;
102 [label=<area_name &le; 33.5<br/>squared_error = 1.792329337632512e+17<br/>samples = 23<br/>value = 1670608695.87>, fillcolor="#f8dcc8"] ;
101 -> 102 ;
103 [label=<street_name &le; 480.5<br/>squared_error = 4064000000000000.0<br/>samples = 5<br/>value = 2194000000.0>, fillcolor="#f5d0b6"] ;
102 -> 103 ;
104 [label=<size &le; 50.25<br/>squared_error = 1568750000000000.0<br/>samples = 4<br/>value = 2167500000.0>, fillcolor="#f6d1b7"] ;
103 -> 104 ;
105 [label=<squared_error = 0.0<br/>samples = 1<br/>value = 2100000000.0>, fillcolor="#f6d2b9"] ;
104 -> 105 ;
106 [label=<size &le; 51.75<br/>squared_error = 66666666667008.0<br/>samples = 3<br/>value = 2190000000.0>, fillcolor="#f5d0b6"] ;
104 -> 106 ;
107 [label=<squared_error = 0.0<br/>samples = 1<br/>value = 2200000000.0>, fillcolor="#f5d0b6"] ;
106 -> 107 ;
108 [label=<size &le; 52.5<br/>squared_error = 25000000000000.0<br/>samples = 2<br/>value = 2185000000.0>, fillcolor="#f5d1b6"] ;
106 -> 108 ;
109 [label=<squared_error = 0.0<br/>samples = 1<br/>value = 2190000000.0>, fillcolor="#f5d0b6"] ;
108 -> 109 ;
110 [label=<squared_error = 0.0<br/>samples = 1<br/>value = 2180000000.0>, fillcolor="#f5d1b6"] ;
108 -> 110 ;
111 [label=<squared_error = 0.0<br/>samples = 1<br/>value = 2300000000.0>, fillcolor="#f5ceb2"] ;
103 -> 111 ;
112 [label=<street_name &le; 7.0<br/>squared_error = 1.3065972838104934e+17<br/>samples = 18<br/>value = 1525222222.5>, fillcolor="#f8dfcd"] ;
102 -> 112 ;
113 [label=<size &le; 50.5<br/>squared_error = 6.24276875e+16<br/>samples = 4<br/>value = 1217250000.0>, fillcolor="#fae6d8"] ;
112 -> 113 ;
114 [label=<size &le; 46.0<br/>squared_error = 1.8126888888888576e+16<br/>samples = 3<br/>value = 1089666666.667>, fillcolor="#fbe9dd"] ;
113 -> 114 ;
115 [label=<squared_error = 0.0<br/>samples = 1<br/>value = 1280000000.0>, fillcolor="#fae5d6"] ;
114 -> 115 ;
116 [label=<size &le; 49.5<br/>squared_error = 20250000000000.0<br/>samples = 2<br/>value = 994500000.0>, fillcolor="#fbebe0"] ;
114 -> 116 ;
117 [label=<squared_error = 0.0<br/>samples = 1<br/>value = 999000000.0>, fillcolor="#fbebe0"] ;
116 -> 117 ;
118 [label=<squared_error = 0.0<br/>samples = 1<br/>value = 990000000.0>, fillcolor="#fbece0"] ;
116 -> 118 ;
119 [label=<squared_error = 0.0<br/>samples = 1<br/>value = 1600000000.0>, fillcolor="#f8decb"] ;
113 -> 119 ;
120 [label=<street_name &le; 89.0<br/>squared_error = 1.153128825721948e+17<br/>samples = 14<br/>value = 1613214286.071>, fillcolor="#f8ddca"] ;
112 -> 120 ;
121 [label=<squared_error = 0.0<br/>samples = 1<br/>value = 2585000000.0>, fillcolor="#f4c8a8"] ;
120 -> 121 ;
122 [label=<street_name &le; 776.0<br/>squared_error = 4.5951479260356104e+16<br/>samples = 13<br/>value = 1538461538.846>, fillcolor="#f8dfcd"] ;
120 -> 122 ;
123 [label=<size &le; 51.0<br/>squared_error = 4.034722222222234e+16<br/>samples = 6<br/>value = 1661666666.667>, fillcolor="#f8dcc9"] ;
122 -> 123 ;
124 [label=<street_name &le; 453.0<br/>squared_error = 8422222222222336.0<br/>samples = 3<br/>value = 1823333333.333>, fillcolor="#f7d9c3"] ;
123 -> 124 ;
125 [label=<squared_error = 0.0<br/>samples = 1<br/>value = 1700000000.0>, fillcolor="#f8dbc7"] ;
124 -> 125 ;
126 [label=<size &le; 48.5<br/>squared_error = 1225000000000000.0<br/>samples = 2<br/>value = 1885000000.0>, fillcolor="#f7d7c1"] ;
124 -> 126 ;
127 [label=<squared_error = 0.0<br/>samples = 1<br/>value = 1850000000.0>, fillcolor="#f7d8c2"] ;
126 -> 127 ;
128 [label=<squared_error = 0.0<br/>samples = 1<br/>value = 1920000000.0>, fillcolor="#f7d7bf"] ;
126 -> 128 ;
129 [label=<squared_error = 2e+16<br/>samples = 3<br/>value = 1500000000.0>, fillcolor="#f9e0ce"] ;
123 -> 129 ;
130 [label=<size &le; 49.0<br/>squared_error = 2.6591836830612732e+16<br/>samples = 7<br/>value = 1432857143.571>, fillcolor="#f9e2d1"] ;
122 -> 130 ;
131 [label=<size &le; 47.5<br/>squared_error = 1.6088888888889088e+16<br/>samples = 3<br/>value = 1273333333.333>, fillcolor="#fae5d6"] ;
130 -> 131 ;
132 [label=<squared_error = 0.0<br/>samples = 1<br/>value = 1320000000.0>, fillcolor="#f9e4d5"] ;
131 -> 132 ;
133 [label=<squared_error = 2.25e+16<br/>samples = 2<br/>value = 1250000000.0>, fillcolor="#fae6d7"] ;
131 -> 133 ;
134 [label=<size &le; 51.25<br/>squared_error = 1068749868750336.0<br/>samples = 4<br/>value = 1552500001.25>, fillcolor="#f8dfcc"] ;
130 -> 134 ;
135 [label=<squared_error = 1422222044444672.0<br/>samples = 3<br/>value = 1553333335.0>, fillcolor="#f8dfcc"] ;
134 -> 135 ;
136 [label=<squared_error = 0.0<br/>samples = 1<br/>value = 1550000000.0>, fillcolor="#f8dfcd"] ;
134 -> 136 ;
137 [label=<street_name &le; 414.0<br/>squared_error = 2.7713274858222694e+17<br/>samples = 23<br/>value = 2245652173.913>, fillcolor="#f5cfb4"] ;
101 -> 137 ;
138 [label=<area_name &le; 53.5<br/>squared_error = 2.7975967346938573e+17<br/>samples = 7<br/>value = 2764571428.571>, fillcolor="#f3c4a2"] ;
137 -> 138 ;
139 [label=<area_name &le; 51.5<br/>squared_error = 7.234464e+16<br/>samples = 5<br/>value = 3020400000.0>, fillcolor="#f2be98"] ;
138 -> 139 ;
140 [label=<size &le; 45.0<br/>squared_error = 576000000000000.0<br/>samples = 2<br/>value = 2726000000.0>, fillcolor="#f3c4a3"] ;
139 -> 140 ;
141 [label=<squared_error = 0.0<br/>samples = 1<br/>value = 2702000000.0>, fillcolor="#f3c5a4"] ;
140 -> 141 ;
142 [label=<squared_error = 0.0<br/>samples = 1<br/>value = 2750000000.0>, fillcolor="#f3c4a2"] ;
140 -> 142 ;
143 [label=<size &le; 50.5<br/>squared_error = 2.388888888889139e+16<br/>samples = 3<br/>value = 3216666666.667>, fillcolor="#f1b991"] ;
139 -> 143 ;
144 [label=<squared_error = 2.25e+16<br/>samples = 2<br/>value = 3150000000.0>, fillcolor="#f1bb94"] ;
143 -> 144 ;
145 [label=<squared_error = 0.0<br/>samples = 1<br/>value = 3350000000.0>, fillcolor="#f0b68d"] ;
143 -> 145 ;
146 [label=<size &le; 48.0<br/>squared_error = 2.25625e+17<br/>samples = 2<br/>value = 2125000000.0>, fillcolor="#f6d2b8"] ;
138 -> 146 ;
147 [label=<squared_error = 0.0<br/>samples = 1<br/>value = 1650000000.0>, fillcolor="#f8ddc9"] ;
146 -> 147 ;
148 [label=<squared_error = 0.0<br/>samples = 1<br/>value = 2600000000.0>, fillcolor="#f3c7a7"] ;
146 -> 148 ;
149 [label=<street_name &le; 467.0<br/>squared_error = 1.0663335937500006e+17<br/>samples = 16<br/>value = 2018625000.0>, fillcolor="#f6d4bc"] ;
137 -> 149 ;
150 [label=<size &le; 50.5<br/>squared_error = 3.255291836734771e+16<br/>samples = 14<br/>value = 1942714285.714>, fillcolor="#f7d6bf"] ;
149 -> 150 ;
151 [label=<squared_error = 7.846784e+16<br/>samples = 5<br/>value = 1883600000.0>, fillcolor="#f7d7c1"] ;
150 -> 151 ;
152 [label=<squared_error = 4024691358024704.0<br/>samples = 9<br/>value = 1975555555.556>, fillcolor="#f6d5bd"] ;
150 -> 152 ;
153 [label=<street_name &le; 718.5<br/>squared_error = 3.025e+17<br/>samples = 2<br/>value = 2550000000.0>, fillcolor="#f4c8a9"] ;
149 -> 153 ;
154 [label=<squared_error = 0.0<br/>samples = 1<br/>value = 3100000000.0>, fillcolor="#f1bc96"] ;
153 -> 154 ;
155 [label=<squared_error = 0.0<br/>samples = 1<br/>value = 2000000000.0>, fillcolor="#f6d5bd"] ;
153 -> 155 ;
156 [label=<size &le; 50.5<br/>squared_error = 1.2637368749999462e+17<br/>samples = 40<br/>value = 1632250000.0>, fillcolor="#f8ddca"] ;
100 -> 156 ;
157 [label=<area_name &le; 62.5<br/>squared_error = 1.3555164930555904e+16<br/>samples = 24<br/>value = 1540208333.333>, fillcolor="#f8dfcd"] ;
156 -> 157 ;
158 [label=<size &le; 49.4<br/>squared_error = 5161000000000000.0<br/>samples = 10<br/>value = 1443000000.0>, fillcolor="#f9e1d0"] ;
157 -> 158 ;
159 [label=<street_name &le; 373.5<br/>squared_error = 1358333333333248.0<br/>samples = 6<br/>value = 1415000000.0>, fillcolor="#f9e2d1"] ;
158 -> 159 ;
160 [label=<street_name &le; 199.5<br/>squared_error = 155555555555328.0<br/>samples = 3<br/>value = 1446666666.667>, fillcolor="#f9e1d0"] ;
159 -> 160 ;
161 [label=<squared_error = 0.0<br/>samples = 1<br/>value = 1460000000.0>, fillcolor="#f9e1d0"] ;
160 -> 161 ;
162 [label=<street_name &le; 265.5<br/>squared_error = 100000000000000.0<br/>samples = 2<br/>value = 1440000000.0>, fillcolor="#f9e1d0"] ;
160 -> 162 ;
163 [label=<squared_error = 0.0<br/>samples = 1<br/>value = 1430000000.0>, fillcolor="#f9e2d1"] ;
162 -> 163 ;
164 [label=<squared_error = 0.0<br/>samples = 1<br/>value = 1450000000.0>, fillcolor="#f9e1d0"] ;
162 -> 164 ;
165 [label=<size &le; 48.5<br/>squared_error = 555555555555840.0<br/>samples = 3<br/>value = 1383333333.333>, fillcolor="#f9e3d2"] ;
159 -> 165 ;
166 [label=<squared_error = 0.0<br/>samples = 1<br/>value = 1350000000.0>, fillcolor="#f9e3d4"] ;
165 -> 166 ;
167 [label=<squared_error = 0.0<br/>samples = 2<br/>value = 1400000000.0>, fillcolor="#f9e2d2"] ;
165 -> 167 ;
168 [label=<size &le; 49.9<br/>squared_error = 7925000000000000.0<br/>samples = 4<br/>value = 1485000000.0>, fillcolor="#f9e0cf"] ;
158 -> 168 ;
169 [label=<squared_error = 0.0<br/>samples = 1<br/>value = 1600000000.0>, fillcolor="#f8decb"] ;
168 -> 169 ;
170 [label=<street_name &le; 819.0<br/>squared_error = 4688888888888576.0<br/>samples = 3<br/>value = 1446666666.667>, fillcolor="#f9e1d0"] ;
168 -> 170 ;
171 [label=<street_name &le; 489.5<br/>squared_error = 4900000000000000.0<br/>samples = 2<br/>value = 1420000000.0>, fillcolor="#f9e2d1"] ;
170 -> 171 ;
172 [label=<squared_error = 0.0<br/>samples = 1<br/>value = 1490000000.0>, fillcolor="#f9e0cf"] ;
171 -> 172 ;
173 [label=<squared_error = 0.0<br/>samples = 1<br/>value = 1350000000.0>, fillcolor="#f9e3d4"] ;
171 -> 173 ;
174 [label=<squared_error = 0.0<br/>samples = 1<br/>value = 1500000000.0>, fillcolor="#f9e0ce"] ;
170 -> 174 ;
175 [label=<area_name &le; 66.5<br/>squared_error = 7980229591836672.0<br/>samples = 14<br/>value = 1609642857.143>, fillcolor="#f8deca"] ;
157 -> 175 ;
176 [label=<size &le; 49.0<br/>squared_error = 5592307692307456.0<br/>samples = 13<br/>value = 1595000000.0>, fillcolor="#f8decb"] ;
175 -> 176 ;
177 [label=<street_name &le; 689.5<br/>squared_error = 4160243055556096.0<br/>samples = 12<br/>value = 1607083333.333>, fillcolor="#f8decb"] ;
176 -> 177 ;
178 [label=<size &le; 47.5<br/>squared_error = 3856611570248192.0<br/>samples = 11<br/>value = 1599545454.545>, fillcolor="#f8decb"] ;
177 -> 178 ;
179 [label=<size &le; 46.5<br/>squared_error = 1004687500000256.0<br/>samples = 4<br/>value = 1571250000.0>, fillcolor="#f8decc"] ;
178 -> 179 ;
180 [label=<street_name &le; 334.5<br/>squared_error = 172222222222336.0<br/>samples = 3<br/>value = 1588333333.333>, fillcolor="#f8decb"] ;
179 -> 180 ;
181 [label=<squared_error = 0.0<br/>samples = 1<br/>value = 1600000000.0>, fillcolor="#f8decb"] ;
180 -> 181 ;
182 [label=<size &le; 45.5<br/>squared_error = 156250000000000.0<br/>samples = 2<br/>value = 1582500000.0>, fillcolor="#f8decb"] ;
180 -> 182 ;
183 [label=<squared_error = 0.0<br/>samples = 1<br/>value = 1595000000.0>, fillcolor="#f8decb"] ;
182 -> 183 ;
184 [label=<squared_error = 0.0<br/>samples = 1<br/>value = 1570000000.0>, fillcolor="#f8decc"] ;
182 -> 184 ;
185 [label=<squared_error = 0.0<br/>samples = 1<br/>value = 1520000000.0>, fillcolor="#f9e0ce"] ;
179 -> 185 ;
186 [label=<street_name &le; 333.5<br/>squared_error = 4767346938776064.0<br/>samples = 7<br/>value = 1615714285.714>, fillcolor="#f8ddca"] ;
178 -> 186 ;
187 [label=<squared_error = 4518750000000000.0<br/>samples = 4<br/>value = 1597500000.0>, fillcolor="#f8decb"] ;
186 -> 187 ;
188 [label=<street_name &le; 382.0<br/>squared_error = 4066666666666496.0<br/>samples = 3<br/>value = 1640000000.0>, fillcolor="#f8ddc9"] ;
186 -> 188 ;
189 [label=<squared_error = 0.0<br/>samples = 1<br/>value = 1690000000.0>, fillcolor="#f8dcc8"] ;
188 -> 189 ;
190 [label=<squared_error = 4225000000000000.0<br/>samples = 2<br/>value = 1615000000.0>, fillcolor="#f8ddca"] ;
188 -> 190 ;
191 [label=<squared_error = 0.0<br/>samples = 1<br/>value = 1690000000.0>, fillcolor="#f8dcc8"] ;
177 -> 191 ;
192 [label=<squared_error = 0.0<br/>samples = 1<br/>value = 1450000000.0>, fillcolor="#f9e1d0"] ;
176 -> 192 ;
193 [label=<squared_error = 0.0<br/>samples = 1<br/>value = 1800000000.0>, fillcolor="#f7d9c4"] ;
175 -> 193 ;
194 [label=<area_name &le; 63.5<br/>squared_error = 2.638327148437499e+17<br/>samples = 16<br/>value = 1770312500.0>, fillcolor="#f7dac5"] ;
156 -> 194 ;
195 [label=<area_name &le; 62.0<br/>squared_error = 2.6153737244897946e+17<br/>samples = 14<br/>value = 1699642857.143>, fillcolor="#f8dcc7"] ;
194 -> 195 ;
196 [label=<street_name &le; 805.0<br/>squared_error = 7.625325443786957e+16<br/>samples = 13<br/>value = 1820769230.769>, fillcolor="#f7d9c3"] ;
195 -> 196 ;
197 [label=<street_name &le; 186.5<br/>squared_error = 4.9165e+16<br/>samples = 10<br/>value = 1725000000.0>, fillcolor="#f8dbc6"] ;
196 -> 197 ;
198 [label=<squared_error = 0.0<br/>samples = 1<br/>value = 2300000000.0>, fillcolor="#f5ceb2"] ;
197 -> 198 ;
199 [label=<size &le; 51.08<br/>squared_error = 1.3809876543209472e+16<br/>samples = 9<br/>value = 1661111111.111>, fillcolor="#f8dcc9"] ;
197 -> 199 ;
200 [label=<street_name &le; 701.0<br/>squared_error = 2.4025e+16<br/>samples = 2<br/>value = 1525000000.0>, fillcolor="#f8dfcd"] ;
199 -> 200 ;
201 [label=<squared_error = 0.0<br/>samples = 1<br/>value = 1370000000.0>, fillcolor="#f9e3d3"] ;
200 -> 201 ;
202 [label=<squared_error = 0.0<br/>samples = 1<br/>value = 1680000000.0>, fillcolor="#f8dcc8"] ;
200 -> 202 ;
203 [label=<size &le; 51.58<br/>squared_error = 4085714285714432.0<br/>samples = 7<br/>value = 1700000000.0>, fillcolor="#f8dbc7"] ;
199 -> 203 ;
204 [label=<squared_error = 0.0<br/>samples = 1<br/>value = 1800000000.0>, fillcolor="#f7d9c4"] ;
203 -> 204 ;
205 [label=<street_name &le; 494.5<br/>squared_error = 2822222222222848.0<br/>samples = 6<br/>value = 1683333333.333>, fillcolor="#f8dcc8"] ;
203 -> 205 ;
206 [label=<squared_error = 22222222221824.0<br/>samples = 3<br/>value = 1656666666.667>, fillcolor="#f8dcc9"] ;
205 -> 206 ;
207 [label=<squared_error = 4200000000000000.0<br/>samples = 3<br/>value = 1710000000.0>, fillcolor="#f8dbc7"] ;
205 -> 207 ;
208 [label=<street_name &le; 835.5<br/>squared_error = 3.406666666666701e+16<br/>samples = 3<br/>value = 2140000000.0>, fillcolor="#f6d2b8"] ;
196 -> 208 ;
209 [label=<squared_error = 4225000000000000.0<br/>samples = 2<br/>value = 2015000000.0>, fillcolor="#f6d4bc"] ;
208 -> 209 ;
210 [label=<squared_error = 0.0<br/>samples = 1<br/>value = 2390000000.0>, fillcolor="#f4ccaf"] ;
208 -> 210 ;
211 [label=<squared_error = -4096.0<br/>samples = 1<br/>value = 125000000.0>, fillcolor="#ffffff"] ;
195 -> 211 ;
212 [label=<area_name &le; 65.5<br/>squared_error = 225000000000000.0<br/>samples = 2<br/>value = 2265000000.0>, fillcolor="#f5cfb3"] ;
194 -> 212 ;
213 [label=<squared_error = 0.0<br/>samples = 1<br/>value = 2250000000.0>, fillcolor="#f5cfb4"] ;
212 -> 213 ;
214 [label=<squared_error = 0.0<br/>samples = 1<br/>value = 2280000000.0>, fillcolor="#f5ceb3"] ;
212 -> 214 ;
215 [label=<size &le; 48.8<br/>squared_error = 2500000000016384.0<br/>samples = 2<br/>value = 840000000.0>, fillcolor="#fcefe6"] ;
99 -> 215 ;
216 [label=<squared_error = 0.0<br/>samples = 1<br/>value = 790000000.0>, fillcolor="#fcf0e7"] ;
215 -> 216 ;
217 [label=<squared_error = 0.0<br/>samples = 1<br/>value = 890000000.0>, fillcolor="#fbeee4"] ;
215 -> 217 ;
218 [label=<street_name &le; 470.5<br/>squared_error = 6.47902499999849e+16<br/>samples = 10<br/>value = 838500000.0>, fillcolor="#fcefe6"] ;
98 -> 218 ;
219 [label=<size &le; 51.0<br/>squared_error = 398765432098816.0<br/>samples = 9<br/>value = 753888888.889>, fillcolor="#fcf1e9"] ;
218 -> 219 ;
220 [label=<street_name &le; 335.0<br/>squared_error = 81632653061248.0<br/>samples = 7<br/>value = 744285714.286>, fillcolor="#fcf1e9"] ;
219 -> 220 ;
221 [label=<size &le; 48.5<br/>squared_error = 88888888888960.0<br/>samples = 3<br/>value = 736666666.667>, fillcolor="#fcf1e9"] ;
220 -> 221 ;
222 [label=<squared_error = 100000000000000.0<br/>samples = 2<br/>value = 740000000.0>, fillcolor="#fcf1e9"] ;
221 -> 222 ;
223 [label=<squared_error = 0.0<br/>samples = 1<br/>value = 730000000.0>, fillcolor="#fcf1ea"] ;
221 -> 223 ;
224 [label=<squared_error = 0.0<br/>samples = 4<br/>value = 750000000.0>, fillcolor="#fcf1e9"] ;
220 -> 224 ;
225 [label=<size &le; 52.5<br/>squared_error = 56250000000000.0<br/>samples = 2<br/>value = 787500000.0>, fillcolor="#fcf0e8"] ;
219 -> 225 ;
226 [label=<squared_error = 0.0<br/>samples = 1<br/>value = 795000000.0>, fillcolor="#fcf0e7"] ;
225 -> 226 ;
227 [label=<squared_error = 0.0<br/>samples = 1<br/>value = 780000000.0>, fillcolor="#fcf0e8"] ;
225 -> 227 ;
228 [label=<squared_error = 0.0<br/>samples = 1<br/>value = 1600000000.0>, fillcolor="#f8decb"] ;
218 -> 228 ;
229 [label=<size &le; 51.05<br/>squared_error = 4.052822580645079e+17<br/>samples = 31<br/>value = 2085000000.0>, fillcolor="#f6d3ba"] ;
97 -> 229 ;
230 [label=<area_name &le; 76.5<br/>squared_error = 2.946437065972224e+17<br/>samples = 24<br/>value = 2276041666.667>, fillcolor="#f5cfb3"] ;
229 -> 230 ;
231 [label=<size &le; 44.0<br/>squared_error = 2.7513979206049075e+17<br/>samples = 23<br/>value = 2239347826.087>, fillcolor="#f5cfb4"] ;
230 -> 231 ;
232 [label=<area_name &le; 73.5<br/>squared_error = 2.544897959183667e+16<br/>samples = 7<br/>value = 2437142857.143>, fillcolor="#f4cbad"] ;
231 -> 232 ;
233 [label=<squared_error = 2.8922222222222336e+16<br/>samples = 6<br/>value = 2426666666.667>, fillcolor="#f4cbad"] ;
232 -> 233 ;
234 [label=<squared_error = 0.0<br/>samples = 1<br/>value = 2500000000.0>, fillcolor="#f4c9ab"] ;
232 -> 234 ;
235 [label=<size &le; 50.05<br/>squared_error = 3.5977490234374957e+17<br/>samples = 16<br/>value = 2152812500.0>, fillcolor="#f6d1b7"] ;
231 -> 235 ;
236 [label=<street_name &le; 691.0<br/>squared_error = 3.794148888888894e+17<br/>samples = 15<br/>value = 2136333333.333>, fillcolor="#f6d2b8"] ;
235 -> 236 ;
237 [label=<street_name &le; 422.0<br/>squared_error = 8.41984e+17<br/>samples = 5<br/>value = 2039000000.0>, fillcolor="#f6d4bb"] ;
236 -> 237 ;
238 [label=<squared_error = 0.0<br/>samples = 1<br/>value = 2100000000.0>, fillcolor="#f6d2b9"] ;
237 -> 238 ;
239 [label=<squared_error = 1.0513171875000003e+18<br/>samples = 4<br/>value = 2023750000.0>, fillcolor="#f6d4bc"] ;
237 -> 239 ;
240 [label=<size &le; 49.0<br/>squared_error = 1.41025e+17<br/>samples = 10<br/>value = 2185000000.0>, fillcolor="#f5d1b6"] ;
236 -> 240 ;
241 [label=<size &le; 46.5<br/>squared_error = 5625000000000000.0<br/>samples = 2<br/>value = 2275000000.0>, fillcolor="#f5cfb3"] ;
240 -> 241 ;
242 [label=<squared_error = 0.0<br/>samples = 1<br/>value = 2200000000.0>, fillcolor="#f5d0b6"] ;
241 -> 242 ;
243 [label=<squared_error = 0.0<br/>samples = 1<br/>value = 2350000000.0>, fillcolor="#f5cdb0"] ;
241 -> 243 ;
244 [label=<squared_error = 1.7234375e+17<br/>samples = 8<br/>value = 2162500000.0>, fillcolor="#f6d1b7"] ;
240 -> 244 ;
245 [label=<squared_error = 0.0<br/>samples = 1<br/>value = 2400000000.0>, fillcolor="#f4ccae"] ;
235 -> 245 ;
246 [label=<squared_error = 0.0<br/>samples = 1<br/>value = 3120000000.0>, fillcolor="#f1bb95"] ;
230 -> 246 ;
247 [label=<street_name &le; 778.5<br/>squared_error = 2.304571428571428e+17<br/>samples = 7<br/>value = 1430000000.0>, fillcolor="#f9e2d1"] ;
229 -> 247 ;
248 [label=<squared_error = 0.0<br/>samples = 1<br/>value = 1350000000.0>, fillcolor="#f9e3d4"] ;
247 -> 248 ;
249 [label=<squared_error = 2.676222222222226e+17<br/>samples = 6<br/>value = 1443333333.333>, fillcolor="#f9e1d0"] ;
247 -> 249 ;
250 [label=<area_name &le; 109.5<br/>squared_error = 1.81834412135318e+17<br/>samples = 183<br/>value = 1521240437.158>, fillcolor="#f9e0ce"] ;
96 -> 250 ;
251 [label=<size &le; 50.18<br/>squared_error = 1.514043885554427e+17<br/>samples = 131<br/>value = 1421908396.947>, fillcolor="#f9e2d1"] ;
250 -> 251 ;
252 [label=<category_name &le; 0.5<br/>squared_error = 1.52975320710059e+17<br/>samples = 65<br/>value = 1254307692.308>, fillcolor="#fae6d7"] ;
251 -> 252 ;
253 [label=<street_name &le; 1028.5<br/>squared_error = 1.1538694693028096e+17<br/>samples = 62<br/>value = 1213387096.774>, fillcolor="#fae6d8"] ;
252 -> 253 ;
254 [label=<size &le; 49.8<br/>squared_error = 8.366724613555277e+16<br/>samples = 58<br/>value = 1240172413.793>, fillcolor="#fae6d8"] ;
253 -> 254 ;
255 [label=<street_name &le; 889.5<br/>squared_error = 6.671299375260339e+16<br/>samples = 49<br/>value = 1201836734.694>, fillcolor="#fae7d9"] ;
254 -> 255 ;
256 [label=<street_name &le; 761.0<br/>squared_error = 6.100397107438028e+16<br/>samples = 44<br/>value = 1167727272.727>, fillcolor="#fae7da"] ;
255 -> 256 ;
257 [label=<area_name &le; 100.0<br/>squared_error = 5.713277734374989e+16<br/>samples = 32<br/>value = 1252812500.0>, fillcolor="#fae6d7"] ;
256 -> 257 ;
258 [label=<street_name &le; 279.5<br/>squared_error = 1.87828384e+16<br/>samples = 25<br/>value = 1324960000.0>, fillcolor="#f9e4d4"] ;
257 -> 258 ;
259 [label=<area_name &le; 94.5<br/>squared_error = 7024481994459648.0<br/>samples = 19<br/>value = 1266789473.684>, fillcolor="#fae5d7"] ;
258 -> 259 ;
260 [label=<street_name &le; 197.0<br/>squared_error = 699640138408704.0<br/>samples = 17<br/>value = 1239352941.176>, fillcolor="#fae6d8"] ;
259 -> 260 ;
261 [label=<squared_error = 0.0<br/>samples = 1<br/>value = 1300000000.0>, fillcolor="#fae5d5"] ;
260 -> 261 ;
262 [label=<size &le; 44.5<br/>squared_error = 499121093750016.0<br/>samples = 16<br/>value = 1235562500.0>, fillcolor="#fae6d8"] ;
260 -> 262 ;
263 [label=<size &le; 43.5<br/>squared_error = 373437500000000.0<br/>samples = 8<br/>value = 1243750000.0>, fillcolor="#fae6d7"] ;
262 -> 263 ;
264 [label=<squared_error = 420408163265280.0<br/>samples = 7<br/>value = 1242857142.857>, fillcolor="#fae6d7"] ;
263 -> 264 ;
265 [label=<squared_error = 0.0<br/>samples = 1<br/>value = 1250000000.0>, fillcolor="#fae6d7"] ;
263 -> 265 ;
266 [label=<size &le; 47.5<br/>squared_error = 490734375000064.0<br/>samples = 8<br/>value = 1227375000.0>, fillcolor="#fae6d8"] ;
262 -> 266 ;
267 [label=<size &le; 46.0<br/>squared_error = 417760000000000.0<br/>samples = 5<br/>value = 1223800000.0>, fillcolor="#fae6d8"] ;
266 -> 267 ;
268 [label=<squared_error = 345187500000000.0<br/>samples = 4<br/>value = 1229750000.0>, fillcolor="#fae6d8"] ;
267 -> 268 ;
269 [label=<squared_error = 0.0<br/>samples = 1<br/>value = 1200000000.0>, fillcolor="#fae7d9"] ;
267 -> 269 ;
270 [label=<squared_error = 555555555555840.0<br/>samples = 3<br/>value = 1233333333.333>, fillcolor="#fae6d8"] ;
266 -> 270 ;
271 [label=<squared_error = 0.0<br/>samples = 2<br/>value = 1500000000.0>, fillcolor="#f9e0ce"] ;
259 -> 271 ;
272 [label=<size &le; 46.0<br/>squared_error = 1.1370138888888832e+16<br/>samples = 6<br/>value = 1509166666.667>, fillcolor="#f9e0ce"] ;
258 -> 272 ;
273 [label=<area_name &le; 85.5<br/>squared_error = 2417187500000000.0<br/>samples = 4<br/>value = 1443750000.0>, fillcolor="#f9e1d0"] ;
272 -> 273 ;
274 [label=<squared_error = 56250000000000.0<br/>samples = 2<br/>value = 1492500000.0>, fillcolor="#f9e0cf"] ;
273 -> 274 ;
275 [label=<size &le; 44.5<br/>squared_error = 25000000000000.0<br/>samples = 2<br/>value = 1395000000.0>, fillcolor="#f9e2d2"] ;
273 -> 275 ;
276 [label=<squared_error = 0.0<br/>samples = 1<br/>value = 1390000000.0>, fillcolor="#f9e2d2"] ;
275 -> 276 ;
277 [label=<squared_error = 0.0<br/>samples = 1<br/>value = 1400000000.0>, fillcolor="#f9e2d2"] ;
275 -> 277 ;
278 [label=<squared_error = 3600000000000000.0<br/>samples = 2<br/>value = 1640000000.0>, fillcolor="#f8ddc9"] ;
272 -> 278 ;
279 [label=<size &le; 47.5<br/>squared_error = 1.0911297959183666e+17<br/>samples = 7<br/>value = 995142857.143>, fillcolor="#fbebe0"] ;
257 -> 279 ;
280 [label=<area_name &le; 108.0<br/>squared_error = 1.1692096e+17<br/>samples = 5<br/>value = 903200000.0>, fillcolor="#fbede3"] ;
279 -> 280 ;
281 [label=<squared_error = 0.0<br/>samples = 3<br/>value = 950000000.0>, fillcolor="#fbece2"] ;
280 -> 281 ;
282 [label=<squared_error = 2.84089e+17<br/>samples = 2<br/>value = 833000000.0>, fillcolor="#fcefe6"] ;
280 -> 282 ;
283 [label=<size &le; 48.5<br/>squared_error = 1.5625e+16<br/>samples = 2<br/>value = 1225000000.0>, fillcolor="#fae6d8"] ;
279 -> 283 ;
284 [label=<squared_error = 0.0<br/>samples = 1<br/>value = 1350000000.0>, fillcolor="#f9e3d4"] ;
283 -> 284 ;
285 [label=<squared_error = 0.0<br/>samples = 1<br/>value = 1100000000.0>, fillcolor="#fae9dc"] ;
283 -> 285 ;
286 [label=<size &le; 47.7<br/>squared_error = 540972222222208.0<br/>samples = 12<br/>value = 940833333.333>, fillcolor="#fbede2"] ;
256 -> 286 ;
287 [label=<street_name &le; 825.0<br/>squared_error = 383673469387776.0<br/>samples = 7<br/>value = 928571428.571>, fillcolor="#fbede3"] ;
286 -> 287 ;
288 [label=<squared_error = 0.0<br/>samples = 1<br/>value = 970000000.0>, fillcolor="#fbece1"] ;
287 -> 288 ;
289 [label=<size &le; 46.2<br/>squared_error = 113888888888960.0<br/>samples = 6<br/>value = 921666666.667>, fillcolor="#fbede3"] ;
287 -> 289 ;
290 [label=<squared_error = 155555555555712.0<br/>samples = 3<br/>value = 916666666.667>, fillcolor="#fbede3"] ;
289 -> 290 ;
291 [label=<squared_error = 22222222222336.0<br/>samples = 3<br/>value = 926666666.667>, fillcolor="#fbede3"] ;
289 -> 291 ;
292 [label=<size &le; 49.3<br/>squared_error = 256000000000000.0<br/>samples = 5<br/>value = 958000000.0>, fillcolor="#fbece1"] ;
286 -> 292 ;
293 [label=<squared_error = 0.0<br/>samples = 1<br/>value = 990000000.0>, fillcolor="#fbece0"] ;
292 -> 293 ;
294 [label=<squared_error = 0.0<br/>samples = 4<br/>value = 950000000.0>, fillcolor="#fbece2"] ;
292 -> 294 ;
295 [label=<street_name &le; 917.0<br/>squared_error = 1.6616000000001536e+16<br/>samples = 5<br/>value = 1502000000.0>, fillcolor="#f9e0ce"] ;
255 -> 295 ;
296 [label=<squared_error = 0.0<br/>samples = 1<br/>value = 1750000000.0>, fillcolor="#f7dac5"] ;
295 -> 296 ;
297 [label=<size &le; 43.5<br/>squared_error = 1550000000000000.0<br/>samples = 4<br/>value = 1440000000.0>, fillcolor="#f9e1d0"] ;
295 -> 297 ;
298 [label=<squared_error = 0.0<br/>samples = 1<br/>value = 1500000000.0>, fillcolor="#f9e0ce"] ;
297 -> 298 ;
299 [label=<size &le; 46.0<br/>squared_error = 466666666666752.0<br/>samples = 3<br/>value = 1420000000.0>, fillcolor="#f9e2d1"] ;
297 -> 299 ;
300 [label=<squared_error = 400000000000000.0<br/>samples = 2<br/>value = 1430000000.0>, fillcolor="#f9e2d1"] ;
299 -> 300 ;
301 [label=<squared_error = 0.0<br/>samples = 1<br/>value = 1400000000.0>, fillcolor="#f9e2d2"] ;
299 -> 301 ;
302 [label=<street_name &le; 603.0<br/>squared_error = 1.244098765432082e+17<br/>samples = 9<br/>value = 1448888888.889>, fillcolor="#f9e1d0"] ;
254 -> 302 ;
303 [label=<area_name &le; 96.0<br/>squared_error = 3200000000000000.0<br/>samples = 3<br/>value = 1070000000.0>, fillcolor="#fbeade"] ;
302 -> 303 ;
304 [label=<squared_error = 0.0<br/>samples = 2<br/>value = 1030000000.0>, fillcolor="#fbebdf"] ;
303 -> 304 ;
305 [label=<squared_error = 0.0<br/>samples = 1<br/>value = 1150000000.0>, fillcolor="#fae8db"] ;
303 -> 305 ;
306 [label=<street_name &le; 644.5<br/>squared_error = 7.734722222222285e+16<br/>samples = 6<br/>value = 1638333333.333>, fillcolor="#f8ddc9"] ;
302 -> 306 ;
307 [label=<squared_error = 1e+16<br/>samples = 2<br/>value = 2000000000.0>, fillcolor="#f6d5bd"] ;
306 -> 307 ;
308 [label=<street_name &le; 722.5<br/>squared_error = 1.291875e+16<br/>samples = 4<br/>value = 1457500000.0>, fillcolor="#f9e1d0"] ;
306 -> 308 ;
309 [label=<squared_error = 0.0<br/>samples = 1<br/>value = 1300000000.0>, fillcolor="#fae5d5"] ;
308 -> 309 ;
310 [label=<street_name &le; 861.0<br/>squared_error = 6200000000000000.0<br/>samples = 3<br/>value = 1510000000.0>, fillcolor="#f9e0ce"] ;
308 -> 310 ;
311 [label=<squared_error = 225000000000000.0<br/>samples = 2<br/>value = 1565000000.0>, fillcolor="#f8dfcc"] ;
310 -> 311 ;
312 [label=<squared_error = 0.0<br/>samples = 1<br/>value = 1400000000.0>, fillcolor="#f9e2d2"] ;
310 -> 312 ;
313 [label=<size &le; 47.345<br/>squared_error = 4.1407500000000006e+17<br/>samples = 4<br/>value = 825000000.0>, fillcolor="#fcefe6"] ;
253 -> 313 ;
314 [label=<squared_error = 0.0<br/>samples = 1<br/>value = 1900000000.0>, fillcolor="#f7d7c0"] ;
313 -> 314 ;
315 [label=<size &le; 49.0<br/>squared_error = 3.848888888888886e+16<br/>samples = 3<br/>value = 466666666.667>, fillcolor="#fdf7f3"] ;
313 -> 315 ;
316 [label=<squared_error = 0.0<br/>samples = 1<br/>value = 700000000.0>, fillcolor="#fcf2eb"] ;
315 -> 316 ;
317 [label=<squared_error = 1.69e+16<br/>samples = 2<br/>value = 350000000.0>, fillcolor="#fefaf7"] ;
315 -> 317 ;
318 [label=<area_name &le; 102.5<br/>squared_error = 1.8e+17<br/>samples = 3<br/>value = 2100000000.0>, fillcolor="#f6d2b9"] ;
252 -> 318 ;
319 [label=<squared_error = 0.0<br/>samples = 1<br/>value = 2700000000.0>, fillcolor="#f3c5a4"] ;
318 -> 319 ;
320 [label=<squared_error = 0.0<br/>samples = 2<br/>value = 1800000000.0>, fillcolor="#f7d9c4"] ;
318 -> 320 ;
321 [label=<street_name &le; 686.0<br/>squared_error = 9.494763544535706e+16<br/>samples = 66<br/>value = 1586969696.97>, fillcolor="#f8decb"] ;
251 -> 321 ;
322 [label=<category_name &le; 0.5<br/>squared_error = 1.3866368749999974e+17<br/>samples = 20<br/>value = 1764750000.0>, fillcolor="#f7dac5"] ;
321 -> 322 ;
323 [label=<size &le; 52.5<br/>squared_error = 9.218240997229926e+16<br/>samples = 19<br/>value = 1712894736.842>, fillcolor="#f8dbc7"] ;
322 -> 323 ;
324 [label=<size &le; 51.15<br/>squared_error = 8.596288888888834e+16<br/>samples = 15<br/>value = 1787666666.667>, fillcolor="#f7dac4"] ;
323 -> 324 ;
325 [label=<street_name &le; 496.0<br/>squared_error = 1.2716666666666496e+16<br/>samples = 3<br/>value = 1515000000.0>, fillcolor="#f9e0ce"] ;
324 -> 325 ;
326 [label=<size &le; 50.68<br/>squared_error = 6400000000000000.0<br/>samples = 2<br/>value = 1580000000.0>, fillcolor="#f8decb"] ;
325 -> 326 ;
327 [label=<squared_error = 0.0<br/>samples = 1<br/>value = 1500000000.0>, fillcolor="#f9e0ce"] ;
326 -> 327 ;
328 [label=<squared_error = 0.0<br/>samples = 1<br/>value = 1660000000.0>, fillcolor="#f8dcc9"] ;
326 -> 328 ;
329 [label=<squared_error = 0.0<br/>samples = 1<br/>value = 1385000000.0>, fillcolor="#f9e3d2"] ;
325 -> 329 ;
330 [label=<size &le; 51.65<br/>squared_error = 8.104097222222285e+16<br/>samples = 12<br/>value = 1855833333.333>, fillcolor="#f7d8c2"] ;
324 -> 330 ;
331 [label=<squared_error = 2500000000000000.0<br/>samples = 2<br/>value = 2250000000.0>, fillcolor="#f5cfb4"] ;
330 -> 331 ;
332 [label=<street_name &le; 370.0<br/>squared_error = 5.9461e+16<br/>samples = 10<br/>value = 1777000000.0>, fillcolor="#f7dac4"] ;
330 -> 332 ;
333 [label=<squared_error = 5.0625e+16<br/>samples = 2<br/>value = 1575000000.0>, fillcolor="#f8decc"] ;
332 -> 333 ;
334 [label=<street_name &le; 593.0<br/>squared_error = 4.891875e+16<br/>samples = 8<br/>value = 1827500000.0>, fillcolor="#f7d9c3"] ;
332 -> 334 ;
335 [label=<street_name &le; 465.0<br/>squared_error = 7.7544e+16<br/>samples = 5<br/>value = 1844000000.0>, fillcolor="#f7d8c2"] ;
334 -> 335 ;
336 [label=<squared_error = 0.0<br/>samples = 1<br/>value = 1800000000.0>, fillcolor="#f7d9c4"] ;
335 -> 336 ;
337 [label=<squared_error = 9.6325e+16<br/>samples = 4<br/>value = 1855000000.0>, fillcolor="#f7d8c2"] ;
335 -> 337 ;
338 [label=<squared_error = 0.0<br/>samples = 3<br/>value = 1800000000.0>, fillcolor="#f7d9c4"] ;
334 -> 338 ;
339 [label=<area_name &le; 100.0<br/>squared_error = 1.591875e+16<br/>samples = 4<br/>value = 1432500000.0>, fillcolor="#f9e2d1"] ;
323 -> 339 ;
340 [label=<street_name &le; 450.0<br/>squared_error = 200000000000000.0<br/>samples = 3<br/>value = 1360000000.0>, fillcolor="#f9e3d3"] ;
339 -> 340 ;
341 [label=<squared_error = 0.0<br/>samples = 1<br/>value = 1350000000.0>, fillcolor="#f9e3d4"] ;
340 -> 341 ;
342 [label=<squared_error = 225000000000000.0<br/>samples = 2<br/>value = 1365000000.0>, fillcolor="#f9e3d3"] ;
340 -> 342 ;
343 [label=<squared_error = 0.0<br/>samples = 1<br/>value = 1650000000.0>, fillcolor="#f8ddc9"] ;
339 -> 343 ;
344 [label=<squared_error = 0.0<br/>samples = 1<br/>value = 2750000000.0>, fillcolor="#f3c4a2"] ;
322 -> 344 ;
345 [label=<area_name &le; 91.5<br/>squared_error = 5.6224350189033976e+16<br/>samples = 46<br/>value = 1509673913.043>, fillcolor="#f9e0ce"] ;
321 -> 345 ;
346 [label=<street_name &le; 1028.5<br/>squared_error = 1.878728999269581e+16<br/>samples = 37<br/>value = 1592297297.297>, fillcolor="#f8decb"] ;
345 -> 346 ;
347 [label=<size &le; 52.1<br/>squared_error = 6691460055096320.0<br/>samples = 33<br/>value = 1559545454.545>, fillcolor="#f8dfcc"] ;
346 -> 347 ;
348 [label=<size &le; 51.5<br/>squared_error = 3666187500000256.0<br/>samples = 20<br/>value = 1547750000.0>, fillcolor="#f8dfcd"] ;
347 -> 348 ;
349 [label=<street_name &le; 769.5<br/>squared_error = 1184000000000000.0<br/>samples = 10<br/>value = 1574000000.0>, fillcolor="#f8decc"] ;
348 -> 349 ;
350 [label=<squared_error = 800000000000000.0<br/>samples = 3<br/>value = 1620000000.0>, fillcolor="#f8ddca"] ;
349 -> 350 ;
351 [label=<size &le; 50.7<br/>squared_error = 53061224489472.0<br/>samples = 7<br/>value = 1554285714.286>, fillcolor="#f8dfcc"] ;
349 -> 351 ;
352 [label=<squared_error = 0.0<br/>samples = 1<br/>value = 1570000000.0>, fillcolor="#f8decc"] ;
351 -> 352 ;
353 [label=<street_name &le; 861.0<br/>squared_error = 13888888888832.0<br/>samples = 6<br/>value = 1551666666.667>, fillcolor="#f8dfcc"] ;
351 -> 353 ;
354 [label=<squared_error = 0.0<br/>samples = 2<br/>value = 1550000000.0>, fillcolor="#f8dfcd"] ;
353 -> 354 ;
355 [label=<squared_error = 18750000000000.0<br/>samples = 4<br/>value = 1552500000.0>, fillcolor="#f8dfcc"] ;
353 -> 355 ;
356 [label=<street_name &le; 769.5<br/>squared_error = 4770249999999488.0<br/>samples = 10<br/>value = 1521500000.0>, fillcolor="#f9e0ce"] ;
348 -> 356 ;
357 [label=<squared_error = 2524000000000000.0<br/>samples = 5<br/>value = 1541000000.0>, fillcolor="#f8dfcd"] ;
356 -> 357 ;
358 [label=<street_name &le; 861.0<br/>squared_error = 6256000000000000.0<br/>samples = 5<br/>value = 1502000000.0>, fillcolor="#f9e0ce"] ;
356 -> 358 ;
359 [label=<squared_error = 0.0<br/>samples = 1<br/>value = 1380000000.0>, fillcolor="#f9e3d3"] ;
358 -> 359 ;
360 [label=<squared_error = 3168750000000000.0<br/>samples = 4<br/>value = 1532500000.0>, fillcolor="#f8dfcd"] ;
358 -> 360 ;
361 [label=<size &le; 52.6<br/>squared_error = 1.080236686390528e+16<br/>samples = 13<br/>value = 1577692307.692>, fillcolor="#f8decc"] ;
347 -> 361 ;
362 [label=<squared_error = 1.21e+16<br/>samples = 2<br/>value = 1740000000.0>, fillcolor="#f7dbc6"] ;
361 -> 362 ;
363 [label=<street_name &le; 861.0<br/>squared_error = 4905785123966464.0<br/>samples = 11<br/>value = 1548181818.182>, fillcolor="#f8dfcd"] ;
361 -> 363 ;
364 [label=<street_name &le; 769.5<br/>squared_error = 5625000000000000.0<br/>samples = 4<br/>value = 1575000000.0>, fillcolor="#f8decc"] ;
363 -> 364 ;
365 [label=<squared_error = 625000000000000.0<br/>samples = 2<br/>value = 1525000000.0>, fillcolor="#f8dfcd"] ;
364 -> 365 ;
366 [label=<squared_error = 5625000000000000.0<br/>samples = 2<br/>value = 1625000000.0>, fillcolor="#f8ddca"] ;
364 -> 366 ;
367 [label=<squared_error = 3848979591836672.0<br/>samples = 7<br/>value = 1532857142.857>, fillcolor="#f8dfcd"] ;
363 -> 367 ;
368 [label=<size &le; 51.65<br/>squared_error = 3.671875e+16<br/>samples = 4<br/>value = 1862500000.0>, fillcolor="#f7d8c1"] ;
346 -> 368 ;
369 [label=<squared_error = 0.0<br/>samples = 1<br/>value = 2100000000.0>, fillcolor="#f6d2b9"] ;
368 -> 369 ;
370 [label=<street_name &le; 1152.5<br/>squared_error = 2.388888888888883e+16<br/>samples = 3<br/>value = 1783333333.333>, fillcolor="#f7dac4"] ;
368 -> 370 ;
371 [label=<squared_error = 3.0625e+16<br/>samples = 2<br/>value = 1825000000.0>, fillcolor="#f7d9c3"] ;
370 -> 371 ;
372 [label=<squared_error = 0.0<br/>samples = 1<br/>value = 1700000000.0>, fillcolor="#f8dbc7"] ;
370 -> 372 ;
373 [label=<street_name &le; 848.5<br/>squared_error = 6.668888888888884e+16<br/>samples = 9<br/>value = 1170000000.0>, fillcolor="#fae7da"] ;
345 -> 373 ;
374 [label=<size &le; 52.0<br/>squared_error = 100000000000000.0<br/>samples = 2<br/>value = 770000000.0>, fillcolor="#fcf0e8"] ;
373 -> 374 ;
375 [label=<squared_error = 0.0<br/>samples = 1<br/>value = 760000000.0>, fillcolor="#fcf1e9"] ;
374 -> 375 ;
376 [label=<squared_error = 0.0<br/>samples = 1<br/>value = 780000000.0>, fillcolor="#fcf0e8"] ;
374 -> 376 ;
377 [label=<street_name &le; 1050.5<br/>squared_error = 2.6938775510203904e+16<br/>samples = 7<br/>value = 1284285714.286>, fillcolor="#fae5d6"] ;
373 -> 377 ;
378 [label=<street_name &le; 932.5<br/>squared_error = 1.21e+16<br/>samples = 2<br/>value = 1110000000.0>, fillcolor="#fae9dc"] ;
377 -> 378 ;
379 [label=<squared_error = 0.0<br/>samples = 1<br/>value = 1220000000.0>, fillcolor="#fae6d8"] ;
378 -> 379 ;
380 [label=<squared_error = 0.0<br/>samples = 1<br/>value = 1000000000.0>, fillcolor="#fbebe0"] ;
378 -> 380 ;
381 [label=<size &le; 52.5<br/>squared_error = 1.5864e+16<br/>samples = 5<br/>value = 1354000000.0>, fillcolor="#f9e3d3"] ;
377 -> 381 ;
382 [label=<category_name &le; 0.5<br/>squared_error = 2500000000000000.0<br/>samples = 2<br/>value = 1500000000.0>, fillcolor="#f9e0ce"] ;
381 -> 382 ;
383 [label=<squared_error = 0.0<br/>samples = 1<br/>value = 1450000000.0>, fillcolor="#f9e1d0"] ;
382 -> 383 ;
384 [label=<squared_error = 0.0<br/>samples = 1<br/>value = 1550000000.0>, fillcolor="#f8dfcd"] ;
382 -> 384 ;
385 [label=<size &le; 53.175<br/>squared_error = 1088888888888576.0<br/>samples = 3<br/>value = 1256666666.667>, fillcolor="#fae5d7"] ;
381 -> 385 ;
386 [label=<squared_error = 225000000000000.0<br/>samples = 2<br/>value = 1235000000.0>, fillcolor="#fae6d8"] ;
385 -> 386 ;
387 [label=<squared_error = 0.0<br/>samples = 1<br/>value = 1300000000.0>, fillcolor="#fae5d5"] ;
385 -> 387 ;
388 [label=<street_name &le; 201.0<br/>squared_error = 1.7101755732247757e+17<br/>samples = 52<br/>value = 1771480769.231>, fillcolor="#f7dac5"] ;
250 -> 388 ;
389 [label=<size &le; 49.5<br/>squared_error = 1.0729166666666702e+17<br/>samples = 6<br/>value = 2375000000.0>, fillcolor="#f5ccaf"] ;
388 -> 389 ;
390 [label=<size &le; 48.5<br/>squared_error = 3.3125e+16<br/>samples = 4<br/>value = 2175000000.0>, fillcolor="#f5d1b6"] ;
389 -> 390 ;
391 [label=<size &le; 46.0<br/>squared_error = 2500000000000000.0<br/>samples = 2<br/>value = 2000000000.0>, fillcolor="#f6d5bd"] ;
390 -> 391 ;
392 [label=<squared_error = 0.0<br/>samples = 1<br/>value = 1950000000.0>, fillcolor="#f7d6be"] ;
391 -> 392 ;
393 [label=<squared_error = 0.0<br/>samples = 1<br/>value = 2050000000.0>, fillcolor="#f6d4bb"] ;
391 -> 393 ;
394 [label=<squared_error = 2500000000000000.0<br/>samples = 2<br/>value = 2350000000.0>, fillcolor="#f5cdb0"] ;
390 -> 394 ;
395 [label=<category_name &le; 1.5<br/>squared_error = 1.5625e+16<br/>samples = 2<br/>value = 2775000000.0>, fillcolor="#f3c3a1"] ;
389 -> 395 ;
396 [label=<squared_error = 0.0<br/>samples = 1<br/>value = 2900000000.0>, fillcolor="#f2c09d"] ;
395 -> 396 ;
397 [label=<squared_error = 0.0<br/>samples = 1<br/>value = 2650000000.0>, fillcolor="#f3c6a6"] ;
395 -> 397 ;
398 [label=<size &le; 48.56<br/>squared_error = 1.2562383412098202e+17<br/>samples = 46<br/>value = 1692760869.565>, fillcolor="#f8dcc7"] ;
388 -> 398 ;
399 [label=<size &le; 48.25<br/>squared_error = 1.952234710743803e+17<br/>samples = 11<br/>value = 2006727272.727>, fillcolor="#f6d5bc"] ;
398 -> 399 ;
400 [label=<street_name &le; 452.5<br/>squared_error = 1.2697284e+17<br/>samples = 10<br/>value = 1917400000.0>, fillcolor="#f7d7c0"] ;
399 -> 400 ;
401 [label=<squared_error = 0.0<br/>samples = 1<br/>value = 1150000000.0>, fillcolor="#fae8db"] ;
400 -> 401 ;
402 [label=<street_name &le; 1156.5<br/>squared_error = 6.837688888888832e+16<br/>samples = 9<br/>value = 2002666666.667>, fillcolor="#f6d5bc"] ;
400 -> 402 ;
403 [label=<street_name &le; 621.0<br/>squared_error = 5.739393750000026e+16<br/>samples = 8<br/>value = 2049250000.0>, fillcolor="#f6d4bb"] ;
402 -> 403 ;
404 [label=<squared_error = 1.0246675000000002e+17<br/>samples = 4<br/>value = 2108500000.0>, fillcolor="#f6d2b9"] ;
403 -> 404 ;
405 [label=<size &le; 47.5<br/>squared_error = 5300000000000000.0<br/>samples = 4<br/>value = 1990000000.0>, fillcolor="#f6d5bd"] ;
403 -> 405 ;
406 [label=<size &le; 45.0<br/>squared_error = 4900000000000000.0<br/>samples = 2<br/>value = 2030000000.0>, fillcolor="#f6d4bc"] ;
405 -> 406 ;
407 [label=<squared_error = 0.0<br/>samples = 1<br/>value = 1960000000.0>, fillcolor="#f6d6be"] ;
406 -> 407 ;
408 [label=<squared_error = 0.0<br/>samples = 1<br/>value = 2100000000.0>, fillcolor="#f6d2b9"] ;
406 -> 408 ;
409 [label=<squared_error = 2500000000000000.0<br/>samples = 2<br/>value = 1950000000.0>, fillcolor="#f7d6be"] ;
405 -> 409 ;
410 [label=<squared_error = 0.0<br/>samples = 1<br/>value = 1630000000.0>, fillcolor="#f8ddca"] ;
402 -> 410 ;
411 [label=<squared_error = 0.0<br/>samples = 1<br/>value = 2900000000.0>, fillcolor="#f2c09d"] ;
399 -> 411 ;
412 [label=<street_name &le; 790.0<br/>squared_error = 6.30321926530606e+16<br/>samples = 35<br/>value = 1594085714.286>, fillcolor="#f8decb"] ;
398 -> 412 ;
413 [label=<street_name &le; 329.0<br/>squared_error = 3.106498060941824e+16<br/>samples = 19<br/>value = 1727578947.368>, fillcolor="#f8dbc6"] ;
412 -> 413 ;
414 [label=<squared_error = 0.0<br/>samples = 1<br/>value = 1160000000.0>, fillcolor="#fae8da"] ;
413 -> 414 ;
415 [label=<area_name &le; 114.0<br/>squared_error = 1.389954320987648e+16<br/>samples = 18<br/>value = 1759111111.111>, fillcolor="#f7dac5"] ;
413 -> 415 ;
416 [label=<street_name &le; 510.5<br/>squared_error = 1.614864e+16<br/>samples = 10<br/>value = 1811400000.0>, fillcolor="#f7d9c3"] ;
415 -> 416 ;
417 [label=<size &le; 51.0<br/>squared_error = 8445555555555840.0<br/>samples = 6<br/>value = 1762333333.333>, fillcolor="#f7dac5"] ;
416 -> 417 ;
418 [label=<squared_error = 100000000000000.0<br/>samples = 2<br/>value = 1690000000.0>, fillcolor="#f8dcc8"] ;
417 -> 418 ;
419 [label=<street_name &le; 442.0<br/>squared_error = 8694250000000000.0<br/>samples = 4<br/>value = 1798500000.0>, fillcolor="#f7d9c4"] ;
417 -> 419 ;
420 [label=<squared_error = 1190250000000000.0<br/>samples = 2<br/>value = 1884500000.0>, fillcolor="#f7d7c1"] ;
419 -> 420 ;
421 [label=<size &le; 52.5<br/>squared_error = 1406250000000000.0<br/>samples = 2<br/>value = 1712500000.0>, fillcolor="#f8dbc7"] ;
419 -> 421 ;
422 [label=<squared_error = 0.0<br/>samples = 1<br/>value = 1675000000.0>, fillcolor="#f8dcc8"] ;
421 -> 422 ;
423 [label=<squared_error = 0.0<br/>samples = 1<br/>value = 1750000000.0>, fillcolor="#f7dac5"] ;
421 -> 423 ;
424 [label=<street_name &le; 621.0<br/>squared_error = 1.8675e+16<br/>samples = 4<br/>value = 1885000000.0>, fillcolor="#f7d7c1"] ;
416 -> 424 ;
425 [label=<squared_error = 0.0<br/>samples = 1<br/>value = 2100000000.0>, fillcolor="#f6d2b9"] ;
424 -> 425 ;
426 [label=<street_name &le; 743.5<br/>squared_error = 4355555555555840.0<br/>samples = 3<br/>value = 1813333333.333>, fillcolor="#f7d9c3"] ;
424 -> 426 ;
427 [label=<squared_error = 0.0<br/>samples = 1<br/>value = 1900000000.0>, fillcolor="#f7d7c0"] ;
426 -> 427 ;
428 [label=<size &le; 50.5<br/>squared_error = 900000000000000.0<br/>samples = 2<br/>value = 1770000000.0>, fillcolor="#f7dac5"] ;
426 -> 428 ;
429 [label=<squared_error = 0.0<br/>samples = 1<br/>value = 1800000000.0>, fillcolor="#f7d9c4"] ;
428 -> 429 ;
430 [label=<squared_error = 0.0<br/>samples = 1<br/>value = 1740000000.0>, fillcolor="#f7dbc6"] ;
428 -> 430 ;
431 [label=<size &le; 48.62<br/>squared_error = 3398437499999232.0<br/>samples = 8<br/>value = 1693750000.0>, fillcolor="#f8dcc7"] ;
415 -> 431 ;
432 [label=<squared_error = 1600000000000000.0<br/>samples = 5<br/>value = 1670000000.0>, fillcolor="#f8dcc8"] ;
431 -> 432 ;
433 [label=<size &le; 48.81<br/>squared_error = 3888888888889344.0<br/>samples = 3<br/>value = 1733333333.333>, fillcolor="#f8dbc6"] ;
431 -> 433 ;
434 [label=<size &le; 48.62<br/>squared_error = 625000000000000.0<br/>samples = 2<br/>value = 1775000000.0>, fillcolor="#f7dac5"] ;
433 -> 434 ;
435 [label=<squared_error = 0.0<br/>samples = 1<br/>value = 1750000000.0>, fillcolor="#f7dac5"] ;
434 -> 435 ;
436 [label=<squared_error = 0.0<br/>samples = 1<br/>value = 1800000000.0>, fillcolor="#f7d9c4"] ;
434 -> 436 ;
437 [label=<squared_error = 0.0<br/>samples = 1<br/>value = 1650000000.0>, fillcolor="#f8ddc9"] ;
433 -> 437 ;
438 [label=<area_name &le; 112.0<br/>squared_error = 5.4701871093750264e+16<br/>samples = 16<br/>value = 1435562500.0>, fillcolor="#f9e1d1"] ;
412 -> 438 ;
439 [label=<street_name &le; 935.5<br/>squared_error = 1.6209372448979712e+16<br/>samples = 14<br/>value = 1511642857.143>, fillcolor="#f9e0ce"] ;
438 -> 439 ;
440 [label=<size &le; 51.0<br/>squared_error = 1362617283950848.0<br/>samples = 9<br/>value = 1464777777.778>, fillcolor="#f9e1d0"] ;
439 -> 440 ;
441 [label=<squared_error = 1300750000000000.0<br/>samples = 4<br/>value = 1449500000.0>, fillcolor="#f9e1d0"] ;
440 -> 441 ;
442 [label=<street_name &le; 842.5<br/>squared_error = 1076000000000000.0<br/>samples = 5<br/>value = 1477000000.0>, fillcolor="#f9e1cf"] ;
440 -> 442 ;
443 [label=<squared_error = 0.0<br/>samples = 1<br/>value = 1485000000.0>, fillcolor="#f9e0cf"] ;
442 -> 443 ;
444 [label=<squared_error = 1325000000000000.0<br/>samples = 4<br/>value = 1475000000.0>, fillcolor="#f9e1cf"] ;
442 -> 444 ;
445 [label=<street_name &le; 1095.5<br/>squared_error = 3.1864e+16<br/>samples = 5<br/>value = 1596000000.0>, fillcolor="#f8decb"] ;
439 -> 445 ;
446 [label=<squared_error = 0.0<br/>samples = 1<br/>value = 1900000000.0>, fillcolor="#f7d7c0"] ;
445 -> 446 ;
447 [label=<size &le; 49.5<br/>squared_error = 1.095e+16<br/>samples = 4<br/>value = 1520000000.0>, fillcolor="#f9e0ce"] ;
445 -> 447 ;
448 [label=<squared_error = 0.0<br/>samples = 1<br/>value = 1700000000.0>, fillcolor="#f8dbc7"] ;
447 -> 448 ;
449 [label=<size &le; 51.0<br/>squared_error = 200000000000000.0<br/>samples = 3<br/>value = 1460000000.0>, fillcolor="#f9e1d0"] ;
447 -> 449 ;
450 [label=<squared_error = 225000000000000.0<br/>samples = 2<br/>value = 1465000000.0>, fillcolor="#f9e1d0"] ;
449 -> 450 ;
451 [label=<squared_error = 0.0<br/>samples = 1<br/>value = 1450000000.0>, fillcolor="#f9e1d0"] ;
449 -> 451 ;
452 [label=<squared_error = 9000000000000.0<br/>samples = 2<br/>value = 903000000.0>, fillcolor="#fbede3"] ;
438 -> 452 ;
453 [label=<rooms &le; 2.145<br/>squared_error = 1.4816805688314268e+18<br/>samples = 2<br/>value = 3517243019.627>, fillcolor="#efb387"] ;
95 -> 453 ;
454 [label=<squared_error = 0.0<br/>samples = 1<br/>value = 4734486039.255>, fillcolor="#ea975c"] ;
453 -> 454 ;
455 [label=<squared_error = 0.0<br/>samples = 1<br/>value = 2300000000.0>, fillcolor="#f5ceb2"] ;
453 -> 455 ;
456 [label=<street_name &le; 268.0<br/>squared_error = 3.412119437254666e+17<br/>samples = 471<br/>value = 1901685774.947>, fillcolor="#f7d7c0"] ;
2 -> 456 ;
457 [label=<area_name &le; 75.0<br/>squared_error = 1.4255298996913408e+17<br/>samples = 72<br/>value = 1564305555.556>, fillcolor="#f8dfcc"] ;
456 -> 457 ;
458 [label=<area_name &le; 7.5<br/>squared_error = 4.5172438016528896e+17<br/>samples = 11<br/>value = 1942272727.273>, fillcolor="#f7d6bf"] ;
457 -> 458 ;
459 [label=<street_name &le; 97.0<br/>squared_error = 1.05625e+17<br/>samples = 2<br/>value = 1225000000.0>, fillcolor="#fae6d8"] ;
458 -> 459 ;
460 [label=<squared_error = 0.0<br/>samples = 1<br/>value = 1550000000.0>, fillcolor="#f8dfcd"] ;
459 -> 460 ;
461 [label=<squared_error = 0.0<br/>samples = 1<br/>value = 900000000.0>, fillcolor="#fbeee4"] ;
459 -> 461 ;
462 [label=<size &le; 57.1<br/>squared_error = 3.888999999999995e+17<br/>samples = 9<br/>value = 2101666666.667>, fillcolor="#f6d2b9"] ;
458 -> 462 ;
463 [label=<street_name &le; 136.5<br/>squared_error = 3.560642857142856e+17<br/>samples = 7<br/>value = 2275000000.0>, fillcolor="#f5cfb3"] ;
462 -> 463 ;
464 [label=<squared_error = 0.0<br/>samples = 1<br/>value = 3400000000.0>, fillcolor="#f0b58b"] ;
463 -> 464 ;
465 [label=<street_name &le; 170.0<br/>squared_error = 1.6931458333333248e+17<br/>samples = 6<br/>value = 2087500000.0>, fillcolor="#f6d3b9"] ;
463 -> 465 ;
466 [label=<street_name &le; 162.0<br/>squared_error = 6806250000000000.0<br/>samples = 2<br/>value = 1567500000.0>, fillcolor="#f8decc"] ;
465 -> 466 ;
467 [label=<squared_error = 0.0<br/>samples = 1<br/>value = 1485000000.0>, fillcolor="#f9e0cf"] ;
466 -> 467 ;
468 [label=<squared_error = 0.0<br/>samples = 1<br/>value = 1650000000.0>, fillcolor="#f8ddc9"] ;
466 -> 468 ;
469 [label=<size &le; 54.5<br/>squared_error = 4.776875e+16<br/>samples = 4<br/>value = 2347500000.0>, fillcolor="#f5cdb0"] ;
465 -> 469 ;
470 [label=<category_name &le; 1.5<br/>squared_error = 2.166666666666701e+16<br/>samples = 3<br/>value = 2450000000.0>, fillcolor="#f4cbad"] ;
469 -> 470 ;
471 [label=<street_name &le; 195.0<br/>squared_error = 2500000000000000.0<br/>samples = 2<br/>value = 2350000000.0>, fillcolor="#f5cdb0"] ;
470 -> 471 ;
472 [label=<squared_error = 0.0<br/>samples = 1<br/>value = 2300000000.0>, fillcolor="#f5ceb2"] ;
471 -> 472 ;
473 [label=<squared_error = 0.0<br/>samples = 1<br/>value = 2400000000.0>, fillcolor="#f4ccae"] ;
471 -> 473 ;
474 [label=<squared_error = 0.0<br/>samples = 1<br/>value = 2650000000.0>, fillcolor="#f3c6a6"] ;
470 -> 474 ;
475 [label=<squared_error = 0.0<br/>samples = 1<br/>value = 2040000000.0>, fillcolor="#f6d4bb"] ;
469 -> 475 ;
476 [label=<size &le; 57.6<br/>squared_error = 3.0625e+16<br/>samples = 2<br/>value = 1495000000.0>, fillcolor="#f9e0ce"] ;
462 -> 476 ;
477 [label=<squared_error = 0.0<br/>samples = 1<br/>value = 1320000000.0>, fillcolor="#f9e4d5"] ;
476 -> 477 ;
478 [label=<squared_error = 0.0<br/>samples = 1<br/>value = 1670000000.0>, fillcolor="#f8dcc8"] ;
476 -> 478 ;
479 [label=<area_name &le; 109.5<br/>squared_error = 5.639376511690214e+16<br/>samples = 61<br/>value = 1496147540.984>, fillcolor="#f9e0ce"] ;
457 -> 479 ;
480 [label=<size &le; 54.5<br/>squared_error = 1.2423282541322496e+16<br/>samples = 44<br/>value = 1392613636.364>, fillcolor="#f9e2d2"] ;
479 -> 480 ;
481 [label=<squared_error = 0.0<br/>samples = 1<br/>value = 850000000.0>, fillcolor="#fcefe5"] ;
480 -> 481 ;
482 [label=<size &le; 55.95<br/>squared_error = 5705759870199808.0<br/>samples = 43<br/>value = 1405232558.14>, fillcolor="#f9e2d2"] ;
480 -> 482 ;
483 [label=<size &le; 55.45<br/>squared_error = 2500000000000000.0<br/>samples = 2<br/>value = 1550000000.0>, fillcolor="#f8dfcd"] ;
482 -> 483 ;
484 [label=<squared_error = 0.0<br/>samples = 1<br/>value = 1500000000.0>, fillcolor="#f9e0ce"] ;
483 -> 484 ;
485 [label=<squared_error = 0.0<br/>samples = 1<br/>value = 1600000000.0>, fillcolor="#f8decb"] ;
483 -> 485 ;
486 [label=<size &le; 56.25<br/>squared_error = 4789946460440064.0<br/>samples = 41<br/>value = 1398170731.707>, fillcolor="#f9e2d2"] ;
482 -> 486 ;
487 [label=<squared_error = 1600000000000000.0<br/>samples = 5<br/>value = 1370000000.0>, fillcolor="#f9e3d3"] ;
486 -> 487 ;
488 [label=<street_name &le; 197.0<br/>squared_error = 5107465277777920.0<br/>samples = 36<br/>value = 1402083333.333>, fillcolor="#f9e2d2"] ;
486 -> 488 ;
489 [label=<size &le; 56.75<br/>squared_error = 3711111111110912.0<br/>samples = 9<br/>value = 1416666666.667>, fillcolor="#f9e2d1"] ;
488 -> 489 ;
490 [label=<squared_error = 0.0<br/>samples = 1<br/>value = 1400000000.0>, fillcolor="#f9e2d2"] ;
489 -> 490 ;
491 [label=<squared_error = 4135937500000000.0<br/>samples = 8<br/>value = 1418750000.0>, fillcolor="#f9e2d1"] ;
489 -> 491 ;
492 [label=<size &le; 57.5<br/>squared_error = 5478395061728000.0<br/>samples = 27<br/>value = 1397222222.222>, fillcolor="#f9e2d2"] ;
488 -> 492 ;
493 [label=<squared_error = 5315134297520640.0<br/>samples = 22<br/>value = 1392045454.545>, fillcolor="#f9e2d2"] ;
492 -> 493 ;
494 [label=<squared_error = 5560000000000000.0<br/>samples = 5<br/>value = 1420000000.0>, fillcolor="#f9e2d1"] ;
492 -> 494 ;
495 [label=<street_name &le; 111.5<br/>squared_error = 7.064775086505165e+16<br/>samples = 17<br/>value = 1764117647.059>, fillcolor="#f7dac5"] ;
479 -> 495 ;
496 [label=<squared_error = 0.0<br/>samples = 1<br/>value = 1150000000.0>, fillcolor="#fae8db"] ;
495 -> 496 ;
497 [label=<street_name &le; 222.0<br/>squared_error = 5.001875e+16<br/>samples = 16<br/>value = 1802500000.0>, fillcolor="#f7d9c4"] ;
495 -> 497 ;
498 [label=<squared_error = 0.0<br/>samples = 1<br/>value = 2600000000.0>, fillcolor="#f3c7a7"] ;
497 -> 498 ;
499 [label=<street_name &le; 247.0<br/>squared_error = 8126222222222848.0<br/>samples = 15<br/>value = 1749333333.333>, fillcolor="#f7dac5"] ;
497 -> 499 ;
500 [label=<street_name &le; 238.5<br/>squared_error = 1200000000000000.0<br/>samples = 4<br/>value = 1680000000.0>, fillcolor="#f8dcc8"] ;
499 -> 500 ;
501 [label=<squared_error = 0.0<br/>samples = 3<br/>value = 1700000000.0>, fillcolor="#f8dbc7"] ;
500 -> 501 ;
502 [label=<squared_error = 0.0<br/>samples = 1<br/>value = 1620000000.0>, fillcolor="#f8ddca"] ;
500 -> 502 ;
503 [label=<size &le; 57.5<br/>squared_error = 8261157024793088.0<br/>samples = 11<br/>value = 1774545454.545>, fillcolor="#f7dac5"] ;
499 -> 503 ;
504 [label=<size &le; 54.5<br/>squared_error = 8476000000000000.0<br/>samples = 10<br/>value = 1782000000.0>, fillcolor="#f7dac4"] ;
503 -> 504 ;
505 [label=<squared_error = 0.0<br/>samples = 5<br/>value = 1750000000.0>, fillcolor="#f7dac5"] ;
504 -> 505 ;
506 [label=<street_name &le; 255.5<br/>squared_error = 1.4904e+16<br/>samples = 5<br/>value = 1814000000.0>, fillcolor="#f7d9c3"] ;
504 -> 506 ;
507 [label=<squared_error = 1.94e+16<br/>samples = 3<br/>value = 1840000000.0>, fillcolor="#f7d8c2"] ;
506 -> 507 ;
508 [label=<size &le; 56.5<br/>squared_error = 5625000000000000.0<br/>samples = 2<br/>value = 1775000000.0>, fillcolor="#f7dac5"] ;
506 -> 508 ;
509 [label=<squared_error = 0.0<br/>samples = 1<br/>value = 1700000000.0>, fillcolor="#f8dbc7"] ;
508 -> 509 ;
510 [label=<squared_error = 0.0<br/>samples = 1<br/>value = 1850000000.0>, fillcolor="#f7d8c2"] ;
508 -> 510 ;
511 [label=<squared_error = 0.0<br/>samples = 1<br/>value = 1700000000.0>, fillcolor="#f8dbc7"] ;
503 -> 511 ;
512 [label=<area_name &le; 109.5<br/>squared_error = 3.528137994736148e+17<br/>samples = 399<br/>value = 1962566416.04>, fillcolor="#f6d6be"] ;
456 -> 512 ;
513 [label=<area_name &le; 85.0<br/>squared_error = 3.450900719836513e+17<br/>samples = 316<br/>value = 1886753164.557>, fillcolor="#f7d7c1"] ;
512 -> 513 ;
514 [label=<street_name &le; 601.5<br/>squared_error = 3.747330872712397e+17<br/>samples = 227<br/>value = 2018290748.899>, fillcolor="#f6d4bc"] ;
513 -> 514 ;
515 [label=<size &le; 55.5<br/>squared_error = 3.67531944435583e+17<br/>samples = 112<br/>value = 1865544642.857>, fillcolor="#f7d8c1"] ;
514 -> 515 ;
516 [label=<street_name &le; 467.5<br/>squared_error = 2.526037892544763e+17<br/>samples = 49<br/>value = 1661918367.347>, fillcolor="#f8dcc9"] ;
515 -> 516 ;
517 [label=<street_name &le; 404.5<br/>squared_error = 2.1828593750000026e+17<br/>samples = 16<br/>value = 2123750000.0>, fillcolor="#f6d2b8"] ;
516 -> 517 ;
518 [label=<area_name &le; 53.5<br/>squared_error = 2.3010578512396698e+17<br/>samples = 11<br/>value = 2248181818.182>, fillcolor="#f5cfb4"] ;
517 -> 518 ;
519 [label=<squared_error = 0.0<br/>samples = 1<br/>value = 3500000000.0>, fillcolor="#efb387"] ;
518 -> 519 ;
520 [label=<street_name &le; 393.5<br/>squared_error = 8.0741e+16<br/>samples = 10<br/>value = 2123000000.0>, fillcolor="#f6d2b8"] ;
518 -> 520 ;
521 [label=<street_name &le; 292.0<br/>squared_error = 3.312839506172877e+16<br/>samples = 9<br/>value = 2047777777.778>, fillcolor="#f6d4bb"] ;
520 -> 521 ;
522 [label=<squared_error = 0.0<br/>samples = 1<br/>value = 2500000000.0>, fillcolor="#f4c9ab"] ;
521 -> 522 ;
523 [label=<area_name &le; 74.5<br/>squared_error = 8510937500000256.0<br/>samples = 8<br/>value = 1991250000.0>, fillcolor="#f6d5bd"] ;
521 -> 523 ;
524 [label=<area_name &le; 66.5<br/>squared_error = 4188888888889344.0<br/>samples = 6<br/>value = 2013333333.333>, fillcolor="#f6d4bc"] ;
523 -> 524 ;
525 [label=<street_name &le; 339.5<br/>squared_error = 675000000000000.0<br/>samples = 4<br/>value = 1985000000.0>, fillcolor="#f6d5bd"] ;
524 -> 525 ;
526 [label=<squared_error = 0.0<br/>samples = 3<br/>value = 2000000000.0>, fillcolor="#f6d5bd"] ;
525 -> 526 ;
527 [label=<squared_error = 0.0<br/>samples = 1<br/>value = 1940000000.0>, fillcolor="#f7d6bf"] ;
525 -> 527 ;
528 [label=<category_name &le; 1.0<br/>squared_error = 6400000000000000.0<br/>samples = 2<br/>value = 2070000000.0>, fillcolor="#f6d3ba"] ;
524 -> 528 ;
529 [label=<squared_error = 0.0<br/>samples = 1<br/>value = 2150000000.0>, fillcolor="#f6d1b7"] ;
528 -> 529 ;
530 [label=<squared_error = 0.0<br/>samples = 1<br/>value = 1990000000.0>, fillcolor="#f6d5bd"] ;
528 -> 530 ;
531 [label=<squared_error = 1.5625e+16<br/>samples = 2<br/>value = 1925000000.0>, fillcolor="#f7d6bf"] ;
523 -> 531 ;
532 [label=<squared_error = 0.0<br/>samples = 1<br/>value = 2800000000.0>, fillcolor="#f3c3a0"] ;
520 -> 532 ;
533 [label=<area_name &le; 48.5<br/>squared_error = 8.328e+16<br/>samples = 5<br/>value = 1850000000.0>, fillcolor="#f7d8c2"] ;
517 -> 533 ;
534 [label=<squared_error = 0.0<br/>samples = 1<br/>value = 2400000000.0>, fillcolor="#f4ccae"] ;
533 -> 534 ;
535 [label=<street_name &le; 439.0<br/>squared_error = 9568750000000000.0<br/>samples = 4<br/>value = 1712500000.0>, fillcolor="#f8dbc7"] ;
533 -> 535 ;
536 [label=<area_name &le; 54.0<br/>squared_error = 288888888888832.0<br/>samples = 3<br/>value = 1656666666.667>, fillcolor="#f8dcc9"] ;
535 -> 536 ;
537 [label=<squared_error = 400000000000000.0<br/>samples = 2<br/>value = 1660000000.0>, fillcolor="#f8dcc9"] ;
536 -> 537 ;
538 [label=<squared_error = 0.0<br/>samples = 1<br/>value = 1650000000.0>, fillcolor="#f8ddc9"] ;
536 -> 538 ;
539 [label=<squared_error = 0.0<br/>samples = 1<br/>value = 1880000000.0>, fillcolor="#f7d7c1"] ;
535 -> 539 ;
540 [label=<area_name &le; 69.5<br/>squared_error = 1.1569072727272653e+17<br/>samples = 33<br/>value = 1438000000.0>, fillcolor="#f9e1d0"] ;
516 -> 540 ;
541 [label=<area_name &le; 62.5<br/>squared_error = 9.608613888888883e+16<br/>samples = 30<br/>value = 1488833333.333>, fillcolor="#f9e0cf"] ;
540 -> 541 ;
542 [label=<street_name &le; 532.0<br/>squared_error = 1.7166932397959168e+16<br/>samples = 28<br/>value = 1414821428.571>, fillcolor="#f9e2d1"] ;
541 -> 542 ;
543 [label=<street_name &le; 493.0<br/>squared_error = 1.467908093278464e+16<br/>samples = 27<br/>value = 1404259259.259>, fillcolor="#f9e2d2"] ;
542 -> 543 ;
544 [label=<size &le; 54.5<br/>squared_error = 2850000000000000.0<br/>samples = 4<br/>value = 1490000000.0>, fillcolor="#f9e0cf"] ;
543 -> 544 ;
545 [label=<squared_error = 3088888888889088.0<br/>samples = 3<br/>value = 1503333333.333>, fillcolor="#f9e0ce"] ;
544 -> 545 ;
546 [label=<squared_error = 0.0<br/>samples = 1<br/>value = 1450000000.0>, fillcolor="#f9e1d0"] ;
544 -> 546 ;
547 [label=<size &le; 54.5<br/>squared_error = 1.5235444234404352e+16<br/>samples = 23<br/>value = 1389347826.087>, fillcolor="#f9e3d2"] ;
543 -> 547 ;
548 [label=<squared_error = 0.0<br/>samples = 1<br/>value = 900000000.0>, fillcolor="#fbeee4"] ;
547 -> 548 ;
549 [label=<squared_error = 4548605371900928.0<br/>samples = 22<br/>value = 1411590909.091>, fillcolor="#f9e2d1"] ;
547 -> 549 ;
550 [label=<squared_error = 0.0<br/>samples = 1<br/>value = 1700000000.0>, fillcolor="#f8dbc7"] ;
542 -> 550 ;
551 [label=<size &le; 54.5<br/>squared_error = 5.0625e+16<br/>samples = 2<br/>value = 2525000000.0>, fillcolor="#f4c9aa"] ;
541 -> 551 ;
552 [label=<squared_error = 0.0<br/>samples = 1<br/>value = 2750000000.0>, fillcolor="#f3c4a2"] ;
551 -> 552 ;
553 [label=<squared_error = 0.0<br/>samples = 1<br/>value = 2300000000.0>, fillcolor="#f5ceb2"] ;
551 -> 553 ;
554 [label=<area_name &le; 74.5<br/>squared_error = 2.749355555555699e+16<br/>samples = 3<br/>value = 929666666.667>, fillcolor="#fbede2"] ;
540 -> 554 ;
555 [label=<size &le; 54.5<br/>squared_error = 4830250000000000.0<br/>samples = 2<br/>value = 819500000.0>, fillcolor="#fcefe6"] ;
554 -> 555 ;
556 [label=<squared_error = 0.0<br/>samples = 1<br/>value = 889000000.0>, fillcolor="#fbeee4"] ;
555 -> 556 ;
557 [label=<squared_error = 0.0<br/>samples = 1<br/>value = 750000000.0>, fillcolor="#fcf1e9"] ;
555 -> 557 ;
558 [label=<squared_error = 0.0<br/>samples = 1<br/>value = 1150000000.0>, fillcolor="#fae8db"] ;
554 -> 558 ;
559 [label=<area_name &le; 35.5<br/>squared_error = 3.995880413202253e+17<br/>samples = 63<br/>value = 2023920634.921>, fillcolor="#f6d4bc"] ;
515 -> 559 ;
560 [label=<size &le; 57.0<br/>squared_error = 1.8184434693877558e+17<br/>samples = 14<br/>value = 2642714285.714>, fillcolor="#f3c6a6"] ;
559 -> 560 ;
561 [label=<area_name &le; 11.5<br/>squared_error = 2.7121866666666595e+17<br/>samples = 9<br/>value = 2695333333.333>, fillcolor="#f3c5a4"] ;
560 -> 561 ;
562 [label=<squared_error = 3.0175699999999994e+17<br/>samples = 8<br/>value = 2676000000.0>, fillcolor="#f3c5a5"] ;
561 -> 562 ;
563 [label=<squared_error = 0.0<br/>samples = 1<br/>value = 2850000000.0>, fillcolor="#f2c29e"] ;
561 -> 563 ;
564 [label=<squared_error = 7016000000000000.0<br/>samples = 5<br/>value = 2548000000.0>, fillcolor="#f4c8a9"] ;
560 -> 564 ;
565 [label=<street_name &le; 510.5<br/>squared_error = 3.211413319450168e+17<br/>samples = 49<br/>value = 1847122448.98>, fillcolor="#f7d8c2"] ;
559 -> 565 ;
566 [label=<street_name &le; 435.0<br/>squared_error = 4.084349203329372e+17<br/>samples = 29<br/>value = 2054103448.276>, fillcolor="#f6d4bb"] ;
565 -> 566 ;
567 [label=<street_name &le; 296.5<br/>squared_error = 3.4335917202268416e+17<br/>samples = 23<br/>value = 1929956521.739>, fillcolor="#f7d6bf"] ;
566 -> 567 ;
568 [label=<size &le; 57.0<br/>squared_error = 7.135555555555635e+16<br/>samples = 3<br/>value = 2336666666.667>, fillcolor="#f5cdb1"] ;
567 -> 568 ;
569 [label=<squared_error = 0.0<br/>samples = 1<br/>value = 1960000000.0>, fillcolor="#f6d6be"] ;
568 -> 569 ;
570 [label=<street_name &le; 287.0<br/>squared_error = 625000000000000.0<br/>samples = 2<br/>value = 2525000000.0>, fillcolor="#f4c9aa"] ;
568 -> 570 ;
571 [label=<squared_error = 0.0<br/>samples = 1<br/>value = 2500000000.0>, fillcolor="#f4c9ab"] ;
570 -> 571 ;
572 [label=<squared_error = 0.0<br/>samples = 1<br/>value = 2550000000.0>, fillcolor="#f4c8a9"] ;
570 -> 572 ;
573 [label=<area_name &le; 74.5<br/>squared_error = 3.5562594750000026e+17<br/>samples = 20<br/>value = 1868950000.0>, fillcolor="#f7d8c1"] ;
567 -> 573 ;
574 [label=<area_name &le; 68.5<br/>squared_error = 2.8255057439446323e+17<br/>samples = 17<br/>value = 1791117647.059>, fillcolor="#f7d9c4"] ;
573 -> 574 ;
575 [label=<area_name &le; 66.5<br/>squared_error = 2.231586377551017e+17<br/>samples = 14<br/>value = 1934928571.429>, fillcolor="#f7d6bf"] ;
574 -> 575 ;
576 [label=<area_name &le; 62.5<br/>squared_error = 5.196257638888807e+16<br/>samples = 12<br/>value = 1762416666.667>, fillcolor="#f7dac5"] ;
575 -> 576 ;
577 [label=<area_name &le; 56.5<br/>squared_error = 2.277142857142835e+16<br/>samples = 7<br/>value = 1640000000.0>, fillcolor="#f8ddc9"] ;
576 -> 577 ;
578 [label=<squared_error = 0.0<br/>samples = 2<br/>value = 1450000000.0>, fillcolor="#f9e1d0"] ;
577 -> 578 ;
579 [label=<size &le; 57.0<br/>squared_error = 1.1664e+16<br/>samples = 5<br/>value = 1716000000.0>, fillcolor="#f8dbc7"] ;
577 -> 579 ;
580 [label=<squared_error = 0.0<br/>samples = 1<br/>value = 1900000000.0>, fillcolor="#f7d7c0"] ;
579 -> 580 ;
581 [label=<street_name &le; 331.5<br/>squared_error = 4000000000000000.0<br/>samples = 4<br/>value = 1670000000.0>, fillcolor="#f8dcc8"] ;
579 -> 581 ;
582 [label=<squared_error = 4622222222221824.0<br/>samples = 3<br/>value = 1656666666.667>, fillcolor="#f8dcc9"] ;
581 -> 582 ;
583 [label=<squared_error = 0.0<br/>samples = 1<br/>value = 1710000000.0>, fillcolor="#f8dbc7"] ;
581 -> 583 ;
584 [label=<squared_error = 4.247775999999898e+16<br/>samples = 5<br/>value = 1933800000.0>, fillcolor="#f7d6bf"] ;
576 -> 584 ;
585 [label=<squared_error = 400000000000000.0<br/>samples = 2<br/>value = 2970000000.0>, fillcolor="#f2bf9a"] ;
575 -> 585 ;
586 [label=<size &le; 56.5<br/>squared_error = 1.28e+16<br/>samples = 3<br/>value = 1120000000.0>, fillcolor="#fae9dc"] ;
574 -> 586 ;
587 [label=<squared_error = 0.0<br/>samples = 1<br/>value = 1200000000.0>, fillcolor="#fae7d9"] ;
586 -> 587 ;
588 [label=<street_name &le; 335.0<br/>squared_error = 1.44e+16<br/>samples = 2<br/>value = 1080000000.0>, fillcolor="#fbe9dd"] ;
586 -> 588 ;
589 [label=<squared_error = 0.0<br/>samples = 1<br/>value = 1200000000.0>, fillcolor="#fae7d9"] ;
588 -> 589 ;
590 [label=<squared_error = 0.0<br/>samples = 1<br/>value = 960000000.0>, fillcolor="#fbece1"] ;
588 -> 590 ;
591 [label=<street_name &le; 384.0<br/>squared_error = 5.40866666666667e+17<br/>samples = 3<br/>value = 2310000000.0>, fillcolor="#f5ceb2"] ;
573 -> 591 ;
592 [label=<squared_error = 0.0<br/>samples = 1<br/>value = 3350000000.0>, fillcolor="#f0b68d"] ;
591 -> 592 ;
593 [label=<squared_error = 100000000000000.0<br/>samples = 2<br/>value = 1790000000.0>, fillcolor="#f7d9c4"] ;
591 -> 593 ;
594 [label=<size &le; 56.5<br/>squared_error = 3.72333333333333e+17<br/>samples = 6<br/>value = 2530000000.0>, fillcolor="#f4c9aa"] ;
566 -> 594 ;
595 [label=<area_name &le; 59.5<br/>squared_error = 4e+16<br/>samples = 2<br/>value = 3000000000.0>, fillcolor="#f2be99"] ;
594 -> 595 ;
596 [label=<squared_error = 0.0<br/>samples = 1<br/>value = 2800000000.0>, fillcolor="#f3c3a0"] ;
595 -> 596 ;
597 [label=<squared_error = 0.0<br/>samples = 1<br/>value = 3200000000.0>, fillcolor="#f1ba92"] ;
595 -> 597 ;
598 [label=<area_name &le; 56.0<br/>squared_error = 3.7282499999999994e+17<br/>samples = 4<br/>value = 2295000000.0>, fillcolor="#f5ceb2"] ;
594 -> 598 ;
599 [label=<squared_error = 0.0<br/>samples = 2<br/>value = 2850000000.0>, fillcolor="#f2c29e"] ;
598 -> 599 ;
600 [label=<area_name &le; 61.0<br/>squared_error = 1.296e+17<br/>samples = 2<br/>value = 1740000000.0>, fillcolor="#f7dbc6"] ;
598 -> 600 ;
601 [label=<squared_error = 0.0<br/>samples = 1<br/>value = 1380000000.0>, fillcolor="#f9e3d3"] ;
600 -> 601 ;
602 [label=<squared_error = 0.0<br/>samples = 1<br/>value = 2100000000.0>, fillcolor="#f6d2b9"] ;
600 -> 602 ;
603 [label=<street_name &le; 532.0<br/>squared_error = 4.237249999999641e+16<br/>samples = 20<br/>value = 1547000000.0>, fillcolor="#f8dfcd"] ;
565 -> 603 ;
604 [label=<size &le; 56.5<br/>squared_error = 3569467455621376.0<br/>samples = 13<br/>value = 1409615384.615>, fillcolor="#f9e2d1"] ;
603 -> 604 ;
605 [label=<squared_error = 1156000000000000.0<br/>samples = 2<br/>value = 1334000000.0>, fillcolor="#f9e4d4"] ;
604 -> 605 ;
606 [label=<squared_error = 2779685950413568.0<br/>samples = 11<br/>value = 1423363636.364>, fillcolor="#f9e2d1"] ;
604 -> 606 ;
607 [label=<size &le; 56.5<br/>squared_error = 1.428469387755008e+16<br/>samples = 7<br/>value = 1802142857.143>, fillcolor="#f7d9c4"] ;
603 -> 607 ;
608 [label=<squared_error = 0.0<br/>samples = 1<br/>value = 1995000000.0>, fillcolor="#f6d5bd"] ;
607 -> 608 ;
609 [label=<size &le; 57.8<br/>squared_error = 9433333333333504.0<br/>samples = 6<br/>value = 1770000000.0>, fillcolor="#f7dac5"] ;
607 -> 609 ;
610 [label=<size &le; 57.3<br/>squared_error = 1.3225e+16<br/>samples = 2<br/>value = 1815000000.0>, fillcolor="#f7d9c3"] ;
609 -> 610 ;
611 [label=<squared_error = 0.0<br/>samples = 1<br/>value = 1700000000.0>, fillcolor="#f8dbc7"] ;
610 -> 611 ;
612 [label=<squared_error = 0.0<br/>samples = 1<br/>value = 1930000000.0>, fillcolor="#f7d6bf"] ;
610 -> 612 ;
613 [label=<squared_error = 6018750000000000.0<br/>samples = 4<br/>value = 1747500000.0>, fillcolor="#f7dac6"] ;
609 -> 613 ;
614 [label=<size &le; 54.15<br/>squared_error = 3.3689368423439565e+17<br/>samples = 115<br/>value = 2167052173.913>, fillcolor="#f6d1b7"] ;
514 -> 614 ;
615 [label=<area_name &le; 29.5<br/>squared_error = 6.134162222222218e+17<br/>samples = 15<br/>value = 1612333333.333>, fillcolor="#f8ddca"] ;
614 -> 615 ;
616 [label=<squared_error = 2167346938775552.0<br/>samples = 7<br/>value = 914285714.286>, fillcolor="#fbede3"] ;
615 -> 616 ;
617 [label=<street_name &le; 777.5<br/>squared_error = 3.4883085937499955e+17<br/>samples = 8<br/>value = 2223125000.0>, fillcolor="#f5d0b5"] ;
615 -> 617 ;
618 [label=<area_name &le; 70.0<br/>squared_error = 2.175625e+16<br/>samples = 2<br/>value = 1402500000.0>, fillcolor="#f9e2d2"] ;
617 -> 618 ;
619 [label=<squared_error = 0.0<br/>samples = 1<br/>value = 1255000000.0>, fillcolor="#fae6d7"] ;
618 -> 619 ;
620 [label=<squared_error = 0.0<br/>samples = 1<br/>value = 1550000000.0>, fillcolor="#f8dfcd"] ;
618 -> 620 ;
621 [label=<area_name &le; 72.5<br/>squared_error = 1.5855555555555635e+17<br/>samples = 6<br/>value = 2496666666.667>, fillcolor="#f4caab"] ;
617 -> 621 ;
622 [label=<street_name &le; 1046.5<br/>squared_error = 2450000000000000.0<br/>samples = 4<br/>value = 2770000000.0>, fillcolor="#f3c3a1"] ;
621 -> 622 ;
623 [label=<squared_error = 625000000000000.0<br/>samples = 2<br/>value = 2775000000.0>, fillcolor="#f3c3a1"] ;
622 -> 623 ;
624 [label=<squared_error = 4225000000000000.0<br/>samples = 2<br/>value = 2765000000.0>, fillcolor="#f3c3a1"] ;
622 -> 624 ;
625 [label=<street_name &le; 888.5<br/>squared_error = 2.25e+16<br/>samples = 2<br/>value = 1950000000.0>, fillcolor="#f7d6be"] ;
621 -> 625 ;
626 [label=<squared_error = 0.0<br/>samples = 1<br/>value = 2100000000.0>, fillcolor="#f6d2b9"] ;
625 -> 626 ;
627 [label=<squared_error = 0.0<br/>samples = 1<br/>value = 1800000000.0>, fillcolor="#f7d9c4"] ;
625 -> 627 ;
628 [label=<category_name &le; 0.5<br/>squared_error = 2.4233481239999485e+17<br/>samples = 100<br/>value = 2250260000.0>, fillcolor="#f5cfb4"] ;
614 -> 628 ;
629 [label=<street_name &le; 659.0<br/>squared_error = 2.1388917664929894e+17<br/>samples = 96<br/>value = 2288395833.333>, fillcolor="#f5ceb2"] ;
628 -> 629 ;
630 [label=<area_name &le; 66.0<br/>squared_error = 6.6725e+16<br/>samples = 4<br/>value = 2935000000.0>, fillcolor="#f2c09b"] ;
629 -> 630 ;
631 [label=<squared_error = 1225000000000000.0<br/>samples = 2<br/>value = 2685000000.0>, fillcolor="#f3c5a4"] ;
630 -> 631 ;
632 [label=<size &le; 55.65<br/>squared_error = 7225000000000000.0<br/>samples = 2<br/>value = 3185000000.0>, fillcolor="#f1ba93"] ;
630 -> 632 ;
633 [label=<squared_error = 0.0<br/>samples = 1<br/>value = 3100000000.0>, fillcolor="#f1bc96"] ;
632 -> 633 ;
634 [label=<squared_error = 0.0<br/>samples = 1<br/>value = 3270000000.0>, fillcolor="#f0b890"] ;
632 -> 634 ;
635 [label=<street_name &le; 710.5<br/>squared_error = 2.013191375236239e+17<br/>samples = 92<br/>value = 2260282608.696>, fillcolor="#f5cfb3"] ;
629 -> 635 ;
636 [label=<street_name &le; 697.0<br/>squared_error = 1.923555555555556e+17<br/>samples = 3<br/>value = 1363333333.333>, fillcolor="#f9e3d3"] ;
635 -> 636 ;
637 [label=<area_name &le; 56.5<br/>squared_error = 6400000000000000.0<br/>samples = 2<br/>value = 1670000000.0>, fillcolor="#f8dcc8"] ;
636 -> 637 ;
638 [label=<squared_error = 0.0<br/>samples = 1<br/>value = 1750000000.0>, fillcolor="#f7dac5"] ;
637 -> 638 ;
639 [label=<squared_error = 0.0<br/>samples = 1<br/>value = 1590000000.0>, fillcolor="#f8decb"] ;
637 -> 639 ;
640 [label=<squared_error = 0.0<br/>samples = 1<br/>value = 750000000.0>, fillcolor="#fcf1e9"] ;
636 -> 640 ;
641 [label=<street_name &le; 785.5<br/>squared_error = 1.7358858679459222e+17<br/>samples = 89<br/>value = 2290516853.933>, fillcolor="#f5ceb2"] ;
635 -> 641 ;
642 [label=<area_name &le; 43.0<br/>squared_error = 6.58312986828032e+16<br/>samples = 53<br/>value = 2387943396.226>, fillcolor="#f4ccaf"] ;
641 -> 642 ;
643 [label=<size &le; 57.3<br/>squared_error = 1.234375e+16<br/>samples = 8<br/>value = 2762500000.0>, fillcolor="#f3c4a2"] ;
642 -> 643 ;
644 [label=<street_name &le; 750.5<br/>squared_error = 6734693877551104.0<br/>samples = 7<br/>value = 2792857142.857>, fillcolor="#f3c3a1"] ;
643 -> 644 ;
645 [label=<squared_error = 0.0<br/>samples = 3<br/>value = 2850000000.0>, fillcolor="#f2c29e"] ;
644 -> 645 ;
646 [label=<size &le; 55.5<br/>squared_error = 7500000000000000.0<br/>samples = 4<br/>value = 2750000000.0>, fillcolor="#f3c4a2"] ;
644 -> 646 ;
647 [label=<squared_error = 0.0<br/>samples = 1<br/>value = 2700000000.0>, fillcolor="#f3c5a4"] ;
646 -> 647 ;
648 [label=<squared_error = 8888888888889344.0<br/>samples = 3<br/>value = 2766666666.667>, fillcolor="#f3c3a1"] ;
646 -> 648 ;
649 [label=<squared_error = 0.0<br/>samples = 1<br/>value = 2550000000.0>, fillcolor="#f4c8a9"] ;
643 -> 649 ;
650 [label=<area_name &le; 57.5<br/>squared_error = 4.5965340246912e+16<br/>samples = 45<br/>value = 2321355555.556>, fillcolor="#f5cdb1"] ;
642 -> 650 ;
651 [label=<street_name &le; 729.0<br/>squared_error = 3.905437061224243e+16<br/>samples = 35<br/>value = 2287171428.571>, fillcolor="#f5ceb2"] ;
650 -> 651 ;
652 [label=<size &le; 57.85<br/>squared_error = 555555555555328.0<br/>samples = 3<br/>value = 2183333333.333>, fillcolor="#f5d1b6"] ;
651 -> 652 ;
653 [label=<squared_error = 0.0<br/>samples = 1<br/>value = 2200000000.0>, fillcolor="#f5d0b6"] ;
652 -> 653 ;
654 [label=<squared_error = 625000000000000.0<br/>samples = 2<br/>value = 2175000000.0>, fillcolor="#f5d1b6"] ;
652 -> 654 ;
655 [label=<size &le; 56.5<br/>squared_error = 4.155802246093619e+16<br/>samples = 32<br/>value = 2296906250.0>, fillcolor="#f5ceb2"] ;
651 -> 655 ;
656 [label=<squared_error = 0.0<br/>samples = 1<br/>value = 2140000000.0>, fillcolor="#f6d2b8"] ;
655 -> 656 ;
657 [label=<size &le; 57.82<br/>squared_error = 4.207880541102899e+16<br/>samples = 31<br/>value = 2301967741.935>, fillcolor="#f5ceb2"] ;
655 -> 657 ;
658 [label=<size &le; 57.32<br/>squared_error = 1.4566678200690688e+16<br/>samples = 17<br/>value = 2288294117.647>, fillcolor="#f5ceb2"] ;
657 -> 658 ;
659 [label=<squared_error = 1.5476374999999488e+16<br/>samples = 16<br/>value = 2288500000.0>, fillcolor="#f5ceb2"] ;
658 -> 659 ;
660 [label=<squared_error = -4096.0<br/>samples = 1<br/>value = 2285000000.0>, fillcolor="#f5ceb2"] ;
658 -> 660 ;
661 [label=<squared_error = 7.498367346938366e+16<br/>samples = 14<br/>value = 2318571428.571>, fillcolor="#f5ceb1"] ;
657 -> 661 ;
662 [label=<street_name &le; 772.0<br/>squared_error = 5.174899999999488e+16<br/>samples = 10<br/>value = 2441000000.0>, fillcolor="#f4cbad"] ;
650 -> 662 ;
663 [label=<street_name &le; 745.5<br/>squared_error = 7.22e+16<br/>samples = 3<br/>value = 2620000000.0>, fillcolor="#f3c7a7"] ;
662 -> 663 ;
664 [label=<squared_error = 0.0<br/>samples = 2<br/>value = 2430000000.0>, fillcolor="#f4cbad"] ;
663 -> 664 ;
665 [label=<squared_error = 0.0<br/>samples = 1<br/>value = 3000000000.0>, fillcolor="#f2be99"] ;
663 -> 665 ;
666 [label=<size &le; 55.5<br/>squared_error = 2.336734693877555e+16<br/>samples = 7<br/>value = 2364285714.286>, fillcolor="#f5cdb0"] ;
662 -> 666 ;
667 [label=<squared_error = 2.583333333333299e+16<br/>samples = 6<br/>value = 2350000000.0>, fillcolor="#f5cdb0"] ;
666 -> 667 ;
668 [label=<squared_error = 0.0<br/>samples = 1<br/>value = 2450000000.0>, fillcolor="#f4cbad"] ;
666 -> 668 ;
669 [label=<street_name &le; 850.5<br/>squared_error = 2.976838541666601e+17<br/>samples = 36<br/>value = 2147083333.333>, fillcolor="#f6d1b7"] ;
641 -> 669 ;
670 [label=<area_name &le; 52.5<br/>squared_error = 1.0388622222222285e+17<br/>samples = 15<br/>value = 1839333333.333>, fillcolor="#f7d8c2"] ;
669 -> 670 ;
671 [label=<street_name &le; 814.5<br/>squared_error = 1.62e+16<br/>samples = 3<br/>value = 2290000000.0>, fillcolor="#f5ceb2"] ;
670 -> 671 ;
672 [label=<squared_error = 0.0<br/>samples = 2<br/>value = 2200000000.0>, fillcolor="#f5d0b6"] ;
671 -> 672 ;
673 [label=<squared_error = 0.0<br/>samples = 1<br/>value = 2470000000.0>, fillcolor="#f4caac"] ;
671 -> 673 ;
674 [label=<street_name &le; 788.5<br/>squared_error = 6.233888888888832e+16<br/>samples = 12<br/>value = 1726666666.667>, fillcolor="#f8dbc6"] ;
670 -> 674 ;
675 [label=<squared_error = 0.0<br/>samples = 1<br/>value = 1450000000.0>, fillcolor="#f9e1d0"] ;
674 -> 675 ;
676 [label=<size &le; 57.8<br/>squared_error = 6.041487603305831e+16<br/>samples = 11<br/>value = 1751818181.818>, fillcolor="#f7dac5"] ;
674 -> 676 ;
677 [label=<area_name &le; 61.0<br/>squared_error = 5.9681e+16<br/>samples = 10<br/>value = 1727000000.0>, fillcolor="#f8dbc6"] ;
676 -> 677 ;
678 [label=<street_name &le; 795.5<br/>squared_error = 9350000000000000.0<br/>samples = 4<br/>value = 1640000000.0>, fillcolor="#f8ddc9"] ;
677 -> 678 ;
679 [label=<squared_error = 0.0<br/>samples = 2<br/>value = 1730000000.0>, fillcolor="#f8dbc6"] ;
678 -> 679 ;
680 [label=<street_name &le; 811.5<br/>squared_error = 2500000000000000.0<br/>samples = 2<br/>value = 1550000000.0>, fillcolor="#f8dfcd"] ;
678 -> 680 ;
681 [label=<squared_error = 0.0<br/>samples = 1<br/>value = 1600000000.0>, fillcolor="#f8decb"] ;
680 -> 681 ;
682 [label=<squared_error = 0.0<br/>samples = 1<br/>value = 1500000000.0>, fillcolor="#f9e0ce"] ;
680 -> 682 ;
683 [label=<street_name &le; 842.0<br/>squared_error = 8.4825e+16<br/>samples = 6<br/>value = 1785000000.0>, fillcolor="#f7dac4"] ;
677 -> 683 ;
684 [label=<squared_error = 0.0<br/>samples = 1<br/>value = 2240000000.0>, fillcolor="#f5cfb4"] ;
683 -> 684 ;
685 [label=<squared_error = 5.2104e+16<br/>samples = 5<br/>value = 1694000000.0>, fillcolor="#f8dcc7"] ;
683 -> 685 ;
686 [label=<squared_error = 0.0<br/>samples = 1<br/>value = 2000000000.0>, fillcolor="#f6d5bd"] ;
676 -> 686 ;
687 [label=<area_name &le; 56.5<br/>squared_error = 3.201392290249431e+17<br/>samples = 21<br/>value = 2366904761.905>, fillcolor="#f5ccb0"] ;
669 -> 687 ;
688 [label=<street_name &le; 1103.5<br/>squared_error = 6.10846938775511e+16<br/>samples = 7<br/>value = 1847857142.857>, fillcolor="#f7d8c2"] ;
687 -> 688 ;
689 [label=<size &le; 57.5<br/>squared_error = 1.36e+16<br/>samples = 5<br/>value = 1930000000.0>, fillcolor="#f7d6bf"] ;
688 -> 689 ;
690 [label=<size &le; 56.9<br/>squared_error = 1.171875e+16<br/>samples = 4<br/>value = 1962500000.0>, fillcolor="#f6d6be"] ;
689 -> 690 ;
691 [label=<area_name &le; 33.5<br/>squared_error = 7222222222222336.0<br/>samples = 3<br/>value = 1916666666.667>, fillcolor="#f7d7c0"] ;
690 -> 691 ;
692 [label=<squared_error = 625000000000000.0<br/>samples = 2<br/>value = 1975000000.0>, fillcolor="#f6d5bd"] ;
691 -> 692 ;
693 [label=<squared_error = 0.0<br/>samples = 1<br/>value = 1800000000.0>, fillcolor="#f7d9c4"] ;
691 -> 693 ;
694 [label=<squared_error = 0.0<br/>samples = 1<br/>value = 2100000000.0>, fillcolor="#f6d2b9"] ;
690 -> 694 ;
695 [label=<squared_error = 0.0<br/>samples = 1<br/>value = 1800000000.0>, fillcolor="#f7d9c4"] ;
689 -> 695 ;
696 [label=<street_name &le; 1200.0<br/>squared_error = 1.2075624999999998e+17<br/>samples = 2<br/>value = 1642500000.0>, fillcolor="#f8ddc9"] ;
688 -> 696 ;
697 [label=<squared_error = 0.0<br/>samples = 1<br/>value = 1295000000.0>, fillcolor="#fae5d6"] ;
696 -> 697 ;
698 [label=<squared_error = 0.0<br/>samples = 1<br/>value = 1990000000.0>, fillcolor="#f6d5bd"] ;
696 -> 698 ;
699 [label=<size &le; 57.5<br/>squared_error = 2.4760867346938883e+17<br/>samples = 14<br/>value = 2626428571.429>, fillcolor="#f3c7a6"] ;
687 -> 699 ;
700 [label=<area_name &le; 59.5<br/>squared_error = 1.3721388888888934e+17<br/>samples = 12<br/>value = 2771666666.667>, fillcolor="#f3c3a1"] ;
699 -> 700 ;
701 [label=<size &le; 55.5<br/>squared_error = 9.4624e+16<br/>samples = 5<br/>value = 2984000000.0>, fillcolor="#f2bf9a"] ;
700 -> 701 ;
702 [label=<squared_error = 0.0<br/>samples = 1<br/>value = 2800000000.0>, fillcolor="#f3c3a0"] ;
701 -> 702 ;
703 [label=<street_name &le; 859.0<br/>squared_error = 1.077e+17<br/>samples = 4<br/>value = 3030000000.0>, fillcolor="#f1be98"] ;
701 -> 703 ;
704 [label=<squared_error = 2.025e+17<br/>samples = 2<br/>value = 2950000000.0>, fillcolor="#f2bf9b"] ;
703 -> 704 ;
705 [label=<size &le; 56.5<br/>squared_error = 100000000000000.0<br/>samples = 2<br/>value = 3110000000.0>, fillcolor="#f1bc95"] ;
703 -> 705 ;
706 [label=<squared_error = 0.0<br/>samples = 1<br/>value = 3100000000.0>, fillcolor="#f1bc96"] ;
705 -> 706 ;
707 [label=<squared_error = 0.0<br/>samples = 1<br/>value = 3120000000.0>, fillcolor="#f1bb95"] ;
705 -> 707 ;
708 [label=<size &le; 55.5<br/>squared_error = 1.1242857142857114e+17<br/>samples = 7<br/>value = 2620000000.0>, fillcolor="#f3c7a7"] ;
700 -> 708 ;
709 [label=<squared_error = 8918750000000000.0<br/>samples = 4<br/>value = 2792500000.0>, fillcolor="#f3c3a1"] ;
708 -> 709 ;
710 [label=<size &le; 56.5<br/>squared_error = 1.57866666666667e+17<br/>samples = 3<br/>value = 2390000000.0>, fillcolor="#f4ccaf"] ;
708 -> 710 ;
711 [label=<area_name &le; 63.0<br/>squared_error = 1600000000000000.0<br/>samples = 2<br/>value = 2110000000.0>, fillcolor="#f6d2b9"] ;
710 -> 711 ;
712 [label=<squared_error = 0.0<br/>samples = 1<br/>value = 2150000000.0>, fillcolor="#f6d1b7"] ;
711 -> 712 ;
713 [label=<squared_error = 0.0<br/>samples = 1<br/>value = 2070000000.0>, fillcolor="#f6d3ba"] ;
711 -> 713 ;
714 [label=<squared_error = 0.0<br/>samples = 1<br/>value = 2950000000.0>, fillcolor="#f2bf9b"] ;
710 -> 714 ;
715 [label=<size &le; 58.45<br/>squared_error = 2.4025e+16<br/>samples = 2<br/>value = 1755000000.0>, fillcolor="#f7dac5"] ;
699 -> 715 ;
716 [label=<squared_error = 0.0<br/>samples = 1<br/>value = 1910000000.0>, fillcolor="#f7d7c0"] ;
715 -> 716 ;
717 [label=<squared_error = 0.0<br/>samples = 1<br/>value = 1600000000.0>, fillcolor="#f8decb"] ;
715 -> 717 ;
718 [label=<street_name &le; 998.5<br/>squared_error = 5.242499999999181e+16<br/>samples = 4<br/>value = 1335000000.0>, fillcolor="#f9e4d4"] ;
628 -> 718 ;
719 [label=<rooms &le; 2.145<br/>squared_error = 1.3888888888888832e+16<br/>samples = 3<br/>value = 1216666666.667>, fillcolor="#fae6d8"] ;
718 -> 719 ;
720 [label=<squared_error = 0.0<br/>samples = 2<br/>value = 1300000000.0>, fillcolor="#fae5d5"] ;
719 -> 720 ;
721 [label=<squared_error = 0.0<br/>samples = 1<br/>value = 1050000000.0>, fillcolor="#fbeade"] ;
719 -> 721 ;
722 [label=<squared_error = 0.0<br/>samples = 1<br/>value = 1690000000.0>, fillcolor="#f8dcc8"] ;
718 -> 722 ;
723 [label=<rooms &le; 2.145<br/>squared_error = 1.1279684332785973e+17<br/>samples = 89<br/>value = 1551258426.966>, fillcolor="#f8dfcc"] ;
513 -> 723 ;
724 [label=<street_name &le; 461.0<br/>squared_error = 9.072861355528858e+16<br/>samples = 87<br/>value = 1527724137.931>, fillcolor="#f8dfcd"] ;
723 -> 724 ;
725 [label=<area_name &le; 99.0<br/>squared_error = 8.358024691358054e+16<br/>samples = 9<br/>value = 1919444444.444>, fillcolor="#f7d7bf"] ;
724 -> 725 ;
726 [label=<street_name &le; 415.0<br/>squared_error = 4.941326530612224e+16<br/>samples = 7<br/>value = 2017857142.857>, fillcolor="#f6d4bc"] ;
725 -> 726 ;
727 [label=<size &le; 57.45<br/>squared_error = 2e+16<br/>samples = 5<br/>value = 1950000000.0>, fillcolor="#f7d6be"] ;
726 -> 727 ;
728 [label=<size &le; 55.125<br/>squared_error = 5468750000000000.0<br/>samples = 4<br/>value = 1887500000.0>, fillcolor="#f7d7c1"] ;
727 -> 728 ;
729 [label=<size &le; 54.125<br/>squared_error = 3888888888888832.0<br/>samples = 3<br/>value = 1916666666.667>, fillcolor="#f7d7c0"] ;
728 -> 729 ;
730 [label=<squared_error = 625000000000000.0<br/>samples = 2<br/>value = 1875000000.0>, fillcolor="#f7d8c1"] ;
729 -> 730 ;
731 [label=<squared_error = 0.0<br/>samples = 1<br/>value = 2000000000.0>, fillcolor="#f6d5bd"] ;
729 -> 731 ;
732 [label=<squared_error = 0.0<br/>samples = 1<br/>value = 1800000000.0>, fillcolor="#f7d9c4"] ;
728 -> 732 ;
733 [label=<squared_error = 0.0<br/>samples = 1<br/>value = 2200000000.0>, fillcolor="#f5d0b6"] ;
727 -> 733 ;
734 [label=<squared_error = 8.265624999999998e+16<br/>samples = 2<br/>value = 2187500000.0>, fillcolor="#f5d1b6"] ;
726 -> 734 ;
735 [label=<size &le; 57.0<br/>squared_error = 5.0625e+16<br/>samples = 2<br/>value = 1575000000.0>, fillcolor="#f8decc"] ;
725 -> 735 ;
736 [label=<squared_error = 0.0<br/>samples = 1<br/>value = 1350000000.0>, fillcolor="#f9e3d4"] ;
735 -> 736 ;
737 [label=<squared_error = 0.0<br/>samples = 1<br/>value = 1800000000.0>, fillcolor="#f7d9c4"] ;
735 -> 737 ;
738 [label=<street_name &le; 534.5<br/>squared_error = 7.180535190663808e+16<br/>samples = 78<br/>value = 1482525641.026>, fillcolor="#f9e0cf"] ;
724 -> 738 ;
739 [label=<street_name &le; 500.5<br/>squared_error = 4.81086938775511e+16<br/>samples = 7<br/>value = 1123142857.143>, fillcolor="#fae9dc"] ;
738 -> 739 ;
740 [label=<squared_error = 0.0<br/>samples = 1<br/>value = 1553000000.0>, fillcolor="#f8dfcc"] ;
739 -> 740 ;
741 [label=<size &le; 55.5<br/>squared_error = 2.0197916666666624e+16<br/>samples = 6<br/>value = 1051500000.0>, fillcolor="#fbeade"] ;
739 -> 741 ;
742 [label=<size &le; 54.845<br/>squared_error = 2025000000000000.0<br/>samples = 2<br/>value = 905000000.0>, fillcolor="#fbede3"] ;
741 -> 742 ;
743 [label=<squared_error = 0.0<br/>samples = 1<br/>value = 950000000.0>, fillcolor="#fbece2"] ;
742 -> 743 ;
744 [label=<squared_error = 0.0<br/>samples = 1<br/>value = 860000000.0>, fillcolor="#fceee5"] ;
742 -> 744 ;
745 [label=<size &le; 56.5<br/>squared_error = 1.31876875e+16<br/>samples = 4<br/>value = 1124750000.0>, fillcolor="#fae8dc"] ;
741 -> 745 ;
746 [label=<squared_error = 1.7300222222222336e+16<br/>samples = 3<br/>value = 1116333333.333>, fillcolor="#fae9dc"] ;
745 -> 746 ;
747 [label=<squared_error = 0.0<br/>samples = 1<br/>value = 1150000000.0>, fillcolor="#fae8db"] ;
745 -> 747 ;
748 [label=<street_name &le; 845.5<br/>squared_error = 6.015251934139852e+16<br/>samples = 71<br/>value = 1517957746.479>, fillcolor="#f9e0ce"] ;
738 -> 748 ;
749 [label=<street_name &le; 813.0<br/>squared_error = 2.132433075550208e+16<br/>samples = 41<br/>value = 1600243902.439>, fillcolor="#f8decb"] ;
748 -> 749 ;
750 [label=<street_name &le; 629.5<br/>squared_error = 2.718382877526835e+16<br/>samples = 29<br/>value = 1627586206.897>, fillcolor="#f8ddca"] ;
749 -> 750 ;
751 [label=<size &le; 55.5<br/>squared_error = 1.5022485207100928e+16<br/>samples = 13<br/>value = 1539230769.231>, fillcolor="#f8dfcd"] ;
750 -> 751 ;
752 [label=<squared_error = 0.0<br/>samples = 1<br/>value = 1500000000.0>, fillcolor="#f9e0ce"] ;
751 -> 752 ;
753 [label=<size &le; 58.8<br/>squared_error = 1.6135416666666496e+16<br/>samples = 12<br/>value = 1542500000.0>, fillcolor="#f8dfcd"] ;
751 -> 753 ;
